311 100
the -0.006254176 -0.17193401 -0.10707277 -0.059731163 0.25774622 -0.103394814 0.3800016 0.00791694 -0.09978268 -0.12099473 -0.06088584 -0.047573753 0.088365085 -0.20712633 -0.1443331 -0.046115026 0.15751742 0.013159181 -0.18881918 -0.29398873 -0.11047901 -0.031586222 0.14990182 0.039595757 0.36507684 -0.12278747 -0.085785724 0.20666009 0.008339309 -0.07372528 0.13222608 -0.0620079 -0.53621274 0.04703009 0.18492219 0.10572423 0.009575325 -0.24871434 -0.27620116 0.21969078 0.27146813 -0.05722905 -0.107878976 -0.0713213 0.20585118 -0.24418153 0.27170062 0.14082216 -0.11111011 -0.07471654 0.14429148 -0.08982426 0.08541278 -0.12023112 0.061152454 0.11185955 -0.08978051 -0.075768694 0.0117804855 -0.112144895 -0.18171251 -0.0872885 0.15088053 0.3237509 0.04454314 0.26823992 -0.076948635 0.46089432 -0.03507251 0.029049665 -0.29616776 0.08371407 -0.13791887 -0.13769498 0.027162291 0.261842 -0.14116526 0.32916552 -0.14667076 0.35853478 0.11666803 -0.22975247 -0.24220099 -0.2656407 0.16542624 0.12046623 0.17318676 0.04382675 -0.23144461 -0.12095368 -0.09667881 0.019822411 0.0817057 0.27804992 -0.19229874 0.22703521 -0.025202384 -0.26820815 0.22049743 -0.15752941
to -0.0005656879 -0.17692094 -0.10597325 -0.0745842 0.26161033 -0.08902754 0.37801665 -0.0061789695 -0.09263523 -0.1051534 -0.07078228 -0.04456849 0.09003501 -0.21876553 -0.1487219 -0.055370018 0.15205097 0.022270413 -0.17827098 -0.28566155 -0.11434194 -0.023593519 0.15467514 0.031802163 0.3550014 -0.12730487 -0.08471797 0.21407989 0.019529218 -0.085084446 0.1315172 -0.052822042 -0.5318122 0.039731316 0.1896162 0.10714329 0.014967839 -0.2410016 -0.27367225 0.21680665 0.2660864 -0.06598149 -0.10022237 -0.07518001 0.2123885 -0.2504064 0.27062744 0.14423396 -0.102168635 -0.06806834 0.13001132 -0.078437574 0.08742451 -0.11606505 0.056124605 0.10221649 -0.095384695 -0.081479356 0.009739353 -0.12434391 -0.18786229 -0.08377533 0.14553559 0.3176933 0.058238685 0.26059797 -0.069131024 0.44682148 -0.042091954 0.018746207 -0.2989703 0.07430929 -0.14153972 -0.13737115 0.030661214 0.25058678 -0.13399117 0.3229025 -0.14619812 0.35581845 0.12384149 -0.21256624 -0.23966736 -0.25623193 0.16145407 0.1226842 0.16546653 0.03943899 -0.21775366 -0.12356525 -0.08283847 0.025612943 0.07876827 0.27579257 -0.17953724 0.2134802 -0.021252982 -0.2677366 0.21230163 -0.15247951
and -0.0030573902 -0.18153045 -0.12245051 -0.092546344 0.26201218 -0.09357255 0.38615003 0.001232913 -0.10068255 -0.10124294 -0.08416212 -0.05008014 0.09582382 -0.21738485 -0.15969452 -0.04297074 0.16361955 0.030012263 -0.1773643 -0.28621504 -0.124340996 -0.012607925 0.15405282 0.03380021 0.3422578 -0.13446155 -0.09205464 0.20893912 0.021860918 -0.09186609 0.120956905 -0.038347226 -0.54116654 0.034053683 0.19113927 0.10836884 0.029963996 -0.23720346 -0.28060448 0.2237258 0.2720013 -0.07476002 -0.10077027 -0.068944514 0.22773723 -0.2684002 0.27144173 0.14736724 -0.10067071 -0.06074618 0.12363503 -0.081827775 0.07773953 -0.118912056 0.056844138 0.09580982 -0.09205809 -0.09392275 0.023119757 -0.1433406 -0.18048824 -0.09020128 0.16083027 0.32500654 0.058043007 0.25554258 -0.06995967 0.4515657 -0.04499274 0.019116059 -0.30218986 0.07530999 -0.13652566 -0.14841124 0.031665128 0.24812312 -0.13754722 0.32784694 -0.14999755 0.34246486 0.12954547 -0.21047951 -0.24369599 -0.26052928 0.15649867 0.13627432 0.17143874 0.044141658 -0.21602203 -0.115842536 -0.07302329 0.02400689 0.07623281 0.2984331 -0.18338501 0.20587139 -0.017844003 -0.28052723 0.2082504 -0.14213717
of -0.0060355794 -0.17082 -0.106711425 -0.06886704 0.25260922 -0.0927947 0.37365192 0.007101241 -0.094140634 -0.10528457 -0.073255226 -0.040631562 0.0945663 -0.20651597 -0.14405209 -0.039942335 0.14386012 0.016206946 -0.17939465 -0.2699783 -0.10643515 -0.02360269 0.14201725 0.038538616 0.34526348 -0.12374477 -0.08770412 0.2032376 0.015576939 -0.07599821 0.13197237 -0.051152814 -0.5188427 0.039866667 0.18952104 0.108676486 0.013215575 -0.22399819 -0.2556365 0.2115691 0.2618785 -0.06541262 -0.09567132 -0.06734112 0.20754156 -0.2451927 0.2503896 0.13629293 -0.10334904 -0.06469411 0.13050139 -0.084686555 0.08683852 -0.1110219 0.049794298 0.09837133 -0.08974541 -0.077908196 0.021932375 -0.12476251 -0.18158916 -0.09061421 0.14514132 0.3193692 0.049165294 0.24978091 -0.07408233 0.4270981 -0.0395618 0.02159401 -0.28403273 0.072642155 -0.1334356 -0.13853687 0.029311739 0.23745713 -0.12767123 0.31660318 -0.14790596 0.3333949 0.11145289 -0.20890306 -0.23338348 -0.25120646 0.15380509 0.11768546 0.16634665 0.041892 -0.22253214 -0.11836273 -0.076507464 0.02872718 0.07498529 0.2681207 -0.1855683 0.21543665 -0.02337574 -0.26607254 0.20178889 -0.1515646
in -0.005712873 -0.18330973 -0.115207575 -0.09627327 0.2675546 -0.08424656 0.38709778 0.0027025118 -0.09882639 -0.09948223 -0.07659871 -0.053025067 0.094203785 -0.22276714 -0.15795033 -0.039411977 0.15508036 0.03037838 -0.18275021 -0.284661 -0.12655485 -0.0146774035 0.15480389 0.03668032 0.34259865 -0.12897769 -0.09816657 0.2083233 0.02322815 -0.0940756 0.12882988 -0.03655125 -0.54748327 0.03982507 0.19340053 0.11705916 0.03581673 -0.23342842 -0.27731353 0.21793857 0.28046837 -0.07724756 -0.09297537 -0.07534456 0.22167861 -0.26687592 0.26192102 0.15137288 -0.09504348 -0.06534312 0.12102062 -0.07769032 0.07798258 -0.12889716 0.04776963 0.08806838 -0.0936822 -0.09392491 0.02684992 -0.14413263 -0.18257923 -0.09566351 0.1559046 0.33301675 0.056526557 0.25628898 -0.078174815 0.4482532 -0.045113347 0.018634528 -0.3041868 0.06691049 -0.13863392 -0.14573966 0.038126767 0.25332332 -0.13152964 0.32834196 -0.14850628 0.34814402 0.12939943 -0.21426833 -0.24511132 -0.2659609 0.1584533 0.13360013 0.17130893 0.045585245 -0.225449 -0.121329814 -0.07619322 0.027477741 0.06928843 0.2949189 -0.18867913 0.2083905 -0.013888648 -0.28546935 0.19931145 -0.14798754
you -0.004047346 -0.18249685 -0.11564901 -0.08160671 0.26335427 -0.087095894 0.38127083 0.0003771717 -0.10012096 -0.10262442 -0.0825943 -0.046494957 0.100336835 -0.2209341 -0.15604408 -0.044208493 0.15647511 0.019587753 -0.17824498 -0.27658668 -0.114415005 -0.013448027 0.15123875 0.0327616 0.337634 -0.12797703 -0.09373533 0.21129562 0.01924136 -0.08330132 0.13232075 -0.043563593 -0.5334045 0.035686083 0.20208949 0.1180997 0.030295564 -0.22663298 -0.26968288 0.21832033 0.27485824 -0.07090521 -0.089211844 -0.076406956 0.21947047 -0.25687298 0.26484916 0.14020625 -0.0933993 -0.063424945 0.12307617 -0.082425766 0.085124955 -0.12090988 0.044166002 0.0910935 -0.08751347 -0.09554573 0.023093434 -0.13332246 -0.18567169 -0.088393606 0.15139641 0.33347103 0.0547578 0.26236162 -0.07366931 0.4442992 -0.039840654 0.02349474 -0.29283303 0.067289546 -0.14498962 -0.14047351 0.029066844 0.2481029 -0.1297182 0.33153734 -0.14370213 0.3496904 0.12341408 -0.21083547 -0.2418318 -0.26025152 0.16042367 0.11999311 0.16062576 0.04767094 -0.22000091 -0.120846555 -0.07886114 0.02988082 0.074973814 0.28965625 -0.18193626 0.21212736 -0.019797297 -0.2767644 0.20133986 -0.14733772
it -0.01244554 -0.17570597 -0.11415788 -0.08049123 0.24786432 -0.0923449 0.36399817 -0.003638365 -0.10342909 -0.103936456 -0.07729151 -0.052248172 0.09248003 -0.20473196 -0.14440718 -0.04185317 0.15430412 0.018786049 -0.17637593 -0.2676162 -0.109721325 -0.021009294 0.14702402 0.0407556 0.33999634 -0.124301046 -0.086647056 0.20844841 0.021789592 -0.07547316 0.12835914 -0.053250734 -0.5198963 0.0479155 0.18636589 0.10921511 0.018513873 -0.23028992 -0.2622055 0.20841381 0.26200974 -0.0722413 -0.09391752 -0.074173026 0.21080714 -0.2518778 0.2533369 0.13619994 -0.102999225 -0.067520015 0.13125217 -0.07818715 0.08846565 -0.12065667 0.045344155 0.09567599 -0.09347051 -0.088052355 0.012291969 -0.12636185 -0.17141996 -0.08592595 0.14597808 0.30506554 0.055632878 0.25199687 -0.07260161 0.43549845 -0.04491369 0.02533202 -0.28362352 0.08015817 -0.13150163 -0.13194586 0.035019144 0.24518384 -0.12503678 0.31172562 -0.13690534 0.3400526 0.12004677 -0.21286255 -0.23306704 -0.24439034 0.14664076 0.12221699 0.16510184 0.046295766 -0.21865101 -0.11168949 -0.07724179 0.028754177 0.07046028 0.26884592 -0.17123145 0.20215613 -0.025377983 -0.2673448 0.20104009 -0.14598483
that -0.006060294 -0.1705325 -0.106954195 -0.082880095 0.25018102 -0.088611946 0.3785561 0.0015929034 -0.10285145 -0.10160233 -0.08106376 -0.050371684 0.09822672 -0.21665004 -0.15060581 -0.044341 0.15065464 0.021571096 -0.17669597 -0.2772598 -0.12135159 -0.011907872 0.14459985 0.0372905 0.3354597 -0.124853835 -0.09310309 0.20199373 0.024985353 -0.08447775 0.1271406 -0.049171396 -0.53101605 0.044726476 0.18866983 0.106053784 0.02537568 -0.23073277 -0.2671848 0.2085136 0.2705274 -0.07811856 -0.0929521 -0.067271285 0.21023802 -0.26049998 0.25745356 0.13785473 -0.10540191 -0.062444594 0.11933703 -0.083209425 0.0803367 -0.12430193 0.052171867 0.09240037 -0.09282588 -0.08901162 0.017719252 -0.13692814 -0.17634557 -0.08859205 0.14610106 0.31985447 0.0570668 0.25136745 -0.073376015 0.43227383 -0.04921594 0.023747351 -0.29776087 0.0788639 -0.13598636 -0.13867098 0.033391546 0.24024436 -0.13390575 0.31855625 -0.14603189 0.34259012 0.11567093 -0.21142279 -0.23141815 -0.25544816 0.14974573 0.12171965 0.17051601 0.04360997 -0.22146901 -0.11269023 -0.077543624 0.034366243 0.070608765 0.28120804 -0.17379777 0.20458584 -0.013392763 -0.2682682 0.20477144 -0.14326243
she -0.010062238 -0.19532084 -0.12784126 -0.09223282 0.28414756 -0.10062564 0.40675294 -0.0038963389 -0.113515556 -0.105098836 -0.078254454 -0.061637912 0.092759535 -0.23445201 -0.16375507 -0.04663058 0.1793942 0.027181279 -0.19447409 -0.31166187 -0.12180961 -0.02214908 0.16497327 0.036915727 0.37680513 -0.1374078 -0.09337059 0.22460514 0.018859943 -0.08630679 0.1381448 -0.05799107 -0.5787105 0.048271812 0.20408654 0.121580794 0.022808513 -0.2559591 -0.3000506 0.24341385 0.295783 -0.07031044 -0.10752429 -0.07343121 0.23343495 -0.28188822 0.28109202 0.16240135 -0.10932701 -0.06908006 0.1442083 -0.07571156 0.09630788 -0.12961803 0.06012639 0.10012159 -0.10158317 -0.10327016 0.014232917 -0.15174529 -0.1960514 -0.09991277 0.15816016 0.33938864 0.059615187 0.2729529 -0.084952645 0.48046514 -0.051537495 0.022278866 -0.3223149 0.08926065 -0.14978242 -0.15323023 0.041337665 0.26917762 -0.13917021 0.34990048 -0.15784843 0.37610087 0.13038793 -0.22742262 -0.254612 -0.27454454 0.16579169 0.14461999 0.18905805 0.048030023 -0.23928738 -0.11989392 -0.08806414 0.026170617 0.08436406 0.31187817 -0.1965742 0.21634373 -0.027159682 -0.2969113 0.21413131 -0.15418512
with -0.0016364213 -0.18096678 -0.12348836 -0.09795989 0.26811582 -0.07993944 0.3854297 -0.004687862 -0.096118875 -0.08988159 -0.08414499 -0.052581374 0.09727355 -0.22763623 -0.1630515 -0.04232632 0.15152755 0.03514583 -0.17108797 -0.27842504 -0.12693077 -0.0063452832 0.15262385 0.034180112 0.32674435 -0.12683587 -0.09886145 0.20987265 0.03571335 -0.09649413 0.11947462 -0.027508287 -0.539636 0.031540617 0.20082131 0.109074734 0.040478613 -0.23145384 -0.26580375 0.22192541 0.27592266 -0.083925314 -0.084289484 -0.06536611 0.22903506 -0.27288562 0.26541108 0.15452817 -0.08935773 -0.06398272 0.10682203 -0.07318797 0.080709755 -0.12475971 0.05165051 0.0854398 -0.08822241 -0.10228604 0.029518155 -0.14810885 -0.17364995 -0.10054309 0.15305635 0.3293239 0.062365595 0.25121012 -0.0733734 0.43900195 -0.052989453 0.020136971 -0.30499136 0.06759429 -0.13189836 -0.14899561 0.03516485 0.24714798 -0.13351095 0.3277973 -0.14314595 0.3361185 0.12852316 -0.19943652 -0.24325672 -0.25493732 0.15797524 0.13748437 0.1611435 0.04104722 -0.20766479 -0.115458526 -0.0614601 0.028634682 0.069643326 0.2908054 -0.18604882 0.19723761 -0.01607619 -0.28873113 0.19417368 -0.13990115
is -0.0005503961 -0.17280948 -0.11682636 -0.08435804 0.2562152 -0.077269815 0.3715361 -0.0050089117 -0.099126704 -0.096286334 -0.07655493 -0.042721495 0.09601087 -0.21791176 -0.15465109 -0.04799471 0.14369562 0.025002882 -0.17383541 -0.26833808 -0.11587307 -0.007932944 0.14782572 0.03982148 0.32265067 -0.12830122 -0.089157276 0.19879648 0.027725833 -0.09190089 0.118512414 -0.033385336 -0.5123825 0.040402796 0.19074291 0.10712746 0.027736869 -0.22497584 -0.26323658 0.21305376 0.26681978 -0.06999233 -0.08728619 -0.072296046 0.21300194 -0.25256914 0.25536337 0.14121339 -0.09805997 -0.05585374 0.10967298 -0.07277083 0.08418326 -0.120222904 0.052473746 0.084852375 -0.093154185 -0.09042829 0.016078677 -0.13244085 -0.17460003 -0.09528136 0.14718595 0.3149434 0.05337344 0.24327528 -0.06621164 0.42454782 -0.039366435 0.0225976 -0.28517446 0.06379444 -0.1357956 -0.1399498 0.029438512 0.24041817 -0.12743676 0.31490925 -0.14329585 0.33671302 0.11376275 -0.19601403 -0.23008002 -0.2512876 0.15456256 0.12123741 0.15334888 0.047852993 -0.21118878 -0.11375393 -0.07141306 0.03191016 0.0644489 0.2736016 -0.17334087 0.20182544 -0.016827941 -0.26677415 0.19508803 -0.14085132
this -0.0033875918 -0.18021773 -0.11821325 -0.103357986 0.26850593 -0.07976579 0.38012415 -0.00044512886 -0.10549307 -0.086720034 -0.09028434 -0.041849382 0.09614093 -0.23023222 -0.1671845 -0.03789843 0.15460038 0.025708217 -0.17207798 -0.2792675 -0.12094245 -0.0010999325 0.14971046 0.036353096 0.33022967 -0.13560565 -0.09384799 0.21269003 0.028479632 -0.09600874 0.119880185 -0.03094219 -0.5473511 0.03402079 0.19715756 0.112466365 0.03424857 -0.22668153 -0.27449638 0.22197573 0.27538586 -0.08501788 -0.09075766 -0.068092965 0.22479562 -0.2676742 0.2718654 0.15226111 -0.084051356 -0.06055615 0.11349431 -0.07486783 0.080652595 -0.12879464 0.04585461 0.087936915 -0.0960564 -0.10820866 0.028704107 -0.14668518 -0.17767265 -0.097369306 0.1577348 0.3296304 0.057666652 0.2544867 -0.07154867 0.44621593 -0.058463003 0.020612627 -0.31045556 0.0663972 -0.13421807 -0.15027739 0.03828215 0.2466004 -0.13017416 0.33182907 -0.1442443 0.33930874 0.12580116 -0.2079682 -0.2488246 -0.26567322 0.16246805 0.134933 0.16292964 0.04498356 -0.21682334 -0.11799871 -0.06543225 0.035237018 0.06979096 0.29849455 -0.18002322 0.19754812 -0.014187138 -0.28156862 0.20057024 -0.14024742
was -0.010395766 -0.16377084 -0.11098357 -0.07268465 0.2364136 -0.086263195 0.3488205 -0.0023790787 -0.10255136 -0.09986687 -0.0679908 -0.052611146 0.07814911 -0.19794436 -0.1444982 -0.043776944 0.15209979 0.02899502 -0.17345634 -0.2716824 -0.1041402 -0.022606345 0.14396396 0.036892205 0.32600424 -0.11802632 -0.07757114 0.1990981 0.018573044 -0.07667606 0.122080505 -0.053123586 -0.50154936 0.044156212 0.17699035 0.099261895 0.020547006 -0.21934995 -0.2543613 0.20910303 0.25159836 -0.06279507 -0.096074656 -0.062409695 0.19108768 -0.245556 0.24405774 0.1320095 -0.09975956 -0.0668984 0.12827854 -0.0751782 0.07790506 -0.11332125 0.051700685 0.09266058 -0.08147775 -0.090191185 0.012085711 -0.119505726 -0.16631731 -0.08592881 0.13506913 0.29070234 0.04543947 0.22973691 -0.075537205 0.4186923 -0.04555067 0.021250993 -0.28031215 0.08000517 -0.12737636 -0.12343902 0.03582479 0.22582115 -0.124032214 0.30279717 -0.135927 0.32552668 0.10496654 -0.19901922 -0.22124909 -0.23976767 0.14126606 0.12507121 0.1647125 0.039607763 -0.21001692 -0.10896564 -0.081475675 0.022448769 0.07313968 0.26918098 -0.16735694 0.19556741 -0.022508727 -0.25783643 0.1857415 -0.1321949
or -0.007501806 -0.18191193 -0.12071667 -0.09623524 0.26409712 -0.08451677 0.38492343 -0.005576538 -0.10021674 -0.08776399 -0.088903174 -0.05147472 0.09540961 -0.22114716 -0.16301739 -0.03926502 0.15463994 0.037229452 -0.17022899 -0.27460593 -0.12461852 -0.0016680426 0.14843297 0.03273304 0.32359213 -0.13370334 -0.1008198 0.20549437 0.033259556 -0.09711252 0.120083526 -0.023848886 -0.5384017 0.031655163 0.19611138 0.11469801 0.04263624 -0.22810172 -0.26455057 0.21236688 0.274829 -0.08710156 -0.09215243 -0.07249628 0.22340766 -0.26915383 0.26869106 0.147304 -0.090072624 -0.06405587 0.1134675 -0.07066673 0.07320073 -0.12205425 0.049308248 0.08333135 -0.09155711 -0.102779165 0.027821662 -0.14768365 -0.17861998 -0.09591526 0.15512015 0.32473347 0.051951714 0.2520347 -0.08218311 0.43460503 -0.056601807 0.013273448 -0.30981034 0.06392399 -0.13182075 -0.14492306 0.035410788 0.24958901 -0.13469796 0.32556856 -0.14307773 0.33365017 0.123445876 -0.20237845 -0.24403402 -0.26198396 0.15054531 0.14024168 0.15862578 0.046035938 -0.20991376 -0.114776924 -0.0636209 0.031701714 0.07122645 0.2936481 -0.17883042 0.19547905 -0.013681825 -0.28490692 0.19326895 -0.13894676
list -0.0051280954 -0.17723092 -0.1253234 -0.09456515 0.2613354 -0.0836776 0.3814788 -0.00606441 -0.09393074 -0.08788499 -0.08788221 -0.043658316 0.09529503 -0.2292643 -0.15456913 -0.045730498 0.14813201 0.018595243 -0.1681873 -0.27054647 -0.124662854 -0.005662411 0.14781436 0.033400655 0.33008128 -0.13402912 -0.09370187 0.21289358 0.02670658 -0.099311024 0.12243371 -0.020437922 -0.53292876 0.028489146 0.20161115 0.11201579 0.039124068 -0.22276615 -0.27329037 0.20804271 0.27320513 -0.073345676 -0.086773776 -0.07171505 0.22885115 -0.25685418 0.2731725 0.15016378 -0.08899884 -0.05159167 0.100183554 -0.073207 0.07305441 -0.12243172 0.052349955 0.081053756 -0.09277682 -0.10067619 0.018757876 -0.1419932 -0.17598572 -0.09795883 0.1623081 0.32791826 0.05480657 0.2475518 -0.06884994 0.43759954 -0.043544143 0.00962656 -0.2995245 0.06244902 -0.13543704 -0.14555144 0.035476018 0.25142574 -0.12517847 0.33013046 -0.15045798 0.34374043 0.12530997 -0.20755255 -0.23894179 -0.25802177 0.15506598 0.12957 0.16361412 0.05340844 -0.21581705 -0.11487835 -0.062825166 0.02758375 0.06247026 0.28373307 -0.19032103 0.20842078 -0.016650172 -0.28661454 0.20648986 -0.14412315
as -0.00864652 -0.18451427 -0.12954688 -0.10294859 0.26969308 -0.09067351 0.398393 -0.0047515472 -0.105205014 -0.09921586 -0.08403457 -0.05110726 0.09274088 -0.22714154 -0.164247 -0.04796684 0.16885051 0.034170672 -0.17737372 -0.28904015 -0.13244696 -0.012193659 0.15936062 0.033166397 0.34245345 -0.1382849 -0.09774323 0.21947503 0.031095883 -0.09666046 0.122295715 -0.036361255 -0.56010747 0.033082765 0.20036262 0.11853705 0.039278716 -0.2300123 -0.28455377 0.2308953 0.28341478 -0.0748955 -0.09445721 -0.07620534 0.22924162 -0.280881 0.26764086 0.15736681 -0.09802505 -0.06802008 0.11947287 -0.071046904 0.08594524 -0.13442615 0.049129438 0.095186345 -0.09132713 -0.10531941 0.018991578 -0.15144943 -0.18761407 -0.09937025 0.15615676 0.3311716 0.061307397 0.25667238 -0.079623535 0.46042687 -0.052171297 0.022081908 -0.31285095 0.07932695 -0.14778629 -0.14505509 0.039898146 0.24941596 -0.13195592 0.33407146 -0.15428482 0.34674573 0.12951249 -0.22002906 -0.24202093 -0.2680248 0.15726817 0.14184509 0.17147319 0.04932605 -0.21907026 -0.11644539 -0.06581705 0.028518206 0.073031746 0.3034021 -0.18361196 0.20420828 -0.01755252 -0.288329 0.20207372 -0.14353208
alice -0.008799328 -0.19610919 -0.12913598 -0.10623704 0.28394446 -0.091901995 0.4141232 -1.044018e-05 -0.11103326 -0.096408516 -0.096520886 -0.055925157 0.10474256 -0.23650125 -0.17309815 -0.041313443 0.17575702 0.036003992 -0.18389967 -0.30640015 -0.13939914 -0.0040166965 0.16333328 0.036352806 0.34920436 -0.14453578 -0.10380209 0.21888939 0.026811544 -0.09896016 0.12510978 -0.040988725 -0.58628047 0.03376094 0.2088418 0.12311458 0.039267074 -0.245122 -0.29709354 0.2342675 0.2941141 -0.08249382 -0.09551585 -0.06874194 0.24422036 -0.29006103 0.28622055 0.1620708 -0.094966955 -0.070562355 0.12133349 -0.08105517 0.08883271 -0.13404423 0.0589923 0.101960644 -0.091033325 -0.10936581 0.028927824 -0.16672283 -0.19226788 -0.10755612 0.16750172 0.34489754 0.06898759 0.26690957 -0.0884254 0.4718477 -0.06804972 0.019279648 -0.3313919 0.079039 -0.14750305 -0.14992394 0.038753018 0.26839608 -0.14261453 0.34898773 -0.15399045 0.3581655 0.13829876 -0.22315827 -0.25897548 -0.27690208 0.17121446 0.14754768 0.18472567 0.043252215 -0.22833018 -0.128707 -0.07819479 0.031275596 0.07757823 0.32087225 -0.1944986 0.21531424 -0.016051058 -0.30852932 0.21769968 -0.15183091
for -0.0055738296 -0.20030725 -0.13429774 -0.11494628 0.2880192 -0.08286048 0.4076129 -0.0056627425 -0.10739737 -0.087912664 -0.09773465 -0.051845524 0.09864016 -0.23783147 -0.17487605 -0.046583645 0.16440971 0.033082094 -0.17926244 -0.29925513 -0.13344137 -0.0030843748 0.16687061 0.03868242 0.3461555 -0.14085855 -0.10371236 0.21668087 0.038955722 -0.10417839 0.1295323 -0.025954058 -0.5709954 0.032298483 0.21348529 0.12849936 0.03808519 -0.23919812 -0.28351238 0.23534828 0.2883611 -0.08694221 -0.092029735 -0.07813011 0.24459845 -0.28719038 0.27720565 0.16030936 -0.09057395 -0.058828235 0.12126799 -0.07496652 0.08139223 -0.13509937 0.049572002 0.09166727 -0.096677125 -0.11203637 0.032097347 -0.1575666 -0.19238631 -0.102660835 0.16947022 0.3435527 0.057003073 0.2706098 -0.08614639 0.47446424 -0.06475766 0.017326448 -0.33035088 0.072282486 -0.1467629 -0.15957406 0.048296846 0.26345205 -0.14157005 0.35070524 -0.1586002 0.35723022 0.1432443 -0.21162222 -0.25544783 -0.28226057 0.16662467 0.14979967 0.17910899 0.04766302 -0.226465 -0.12508936 -0.07117134 0.0333448 0.07709952 0.31952733 -0.1961877 0.20638613 -0.018399965 -0.29942647 0.21389729 -0.14604926
her -0.0012917913 -0.18027604 -0.11970197 -0.08843625 0.25460812 -0.08674959 0.36311266 0.0002845491 -0.09826335 -0.08876899 -0.08339308 -0.050315384 0.08838969 -0.2141904 -0.15679465 -0.030727154 0.15759899 0.0342637 -0.17198072 -0.26364014 -0.11681624 -0.010021686 0.13967785 0.027532231 0.3219757 -0.11992658 -0.08630906 0.19656548 0.027709214 -0.08279726 0.11188392 -0.03238326 -0.51137984 0.031953137 0.18557972 0.105419606 0.028563926 -0.22140901 -0.25699356 0.20482402 0.2603183 -0.07738802 -0.08738739 -0.066029556 0.20924477 -0.25783834 0.24531238 0.1385705 -0.09044503 -0.05904547 0.108414 -0.06698145 0.08218195 -0.12121466 0.04885957 0.08908254 -0.08046986 -0.09923258 0.02561518 -0.14241071 -0.16577384 -0.087496415 0.14465824 0.2973409 0.05197628 0.2324161 -0.07654729 0.42327958 -0.055717334 0.014156582 -0.28408965 0.06869502 -0.12965038 -0.1302248 0.031861607 0.23116536 -0.12554288 0.3104391 -0.13378277 0.3193943 0.12021207 -0.20263682 -0.2333984 -0.24534857 0.14381512 0.13476898 0.16368756 0.046705134 -0.20545204 -0.10991089 -0.07316989 0.027573293 0.06524518 0.2770632 -0.17244564 0.19277695 -0.01209894 -0.26875708 0.1872221 -0.1322309
said -0.0016276035 -0.19216609 -0.12908013 -0.10429182 0.28026846 -0.08505443 0.3849495 0.00051593425 -0.10844425 -0.08893055 -0.09186547 -0.052414026 0.096218355 -0.23415688 -0.17137839 -0.033757724 0.1678995 0.03622651 -0.17328973 -0.2888095 -0.12401178 0.0017716602 0.15560721 0.03473992 0.3382963 -0.13459699 -0.09521613 0.2142784 0.025574686 -0.09705169 0.1268547 -0.03121728 -0.55516744 0.02997609 0.20740479 0.114257485 0.0398174 -0.23685881 -0.28260103 0.22809707 0.275057 -0.08119503 -0.08538863 -0.06759471 0.23395842 -0.2843178 0.26914522 0.15794371 -0.09188299 -0.061926953 0.10757794 -0.073509544 0.07521423 -0.1264959 0.04965046 0.09310223 -0.089112476 -0.11155088 0.030229764 -0.15568517 -0.18262687 -0.0961415 0.16015184 0.33262154 0.058517974 0.24869092 -0.07478717 0.45315516 -0.066820644 0.012482103 -0.31921953 0.0719293 -0.14191169 -0.1528432 0.046031885 0.25287977 -0.13664594 0.3308834 -0.14734456 0.34348038 0.13614379 -0.20810837 -0.25051177 -0.26985952 0.15684228 0.14131704 0.1689429 0.044136535 -0.22443712 -0.11296593 -0.068925105 0.028255967 0.074554175 0.3037146 -0.18254724 0.20281614 -0.014895245 -0.2970617 0.20434596 -0.13979892
all -0.0033052946 -0.18027568 -0.119794756 -0.09994962 0.25670815 -0.08087271 0.3620472 -0.0015045466 -0.10119617 -0.08939855 -0.087341525 -0.04456258 0.09457326 -0.21487036 -0.15684675 -0.03262942 0.14657047 0.036078658 -0.16285639 -0.26361832 -0.11448904 -0.0058024735 0.14583988 0.031234723 0.3027415 -0.12883109 -0.08788257 0.19324487 0.024544146 -0.091731004 0.1177355 -0.028302047 -0.51152766 0.023488501 0.18904434 0.10312023 0.039778832 -0.22037114 -0.25198698 0.21173286 0.25774115 -0.078217156 -0.089870565 -0.065453455 0.21914263 -0.25719914 0.25093043 0.13838907 -0.08194728 -0.057048798 0.10774997 -0.07022912 0.07276463 -0.12310166 0.0498687 0.08208728 -0.08325803 -0.10315816 0.02099193 -0.13969088 -0.17428446 -0.09343321 0.15351443 0.30544162 0.051287394 0.24252209 -0.07284035 0.41932505 -0.055219986 0.015784312 -0.29281467 0.06752079 -0.12976614 -0.14215143 0.038132604 0.23405547 -0.12886973 0.3132219 -0.13839589 0.31931546 0.12875964 -0.18960933 -0.23359615 -0.24655785 0.15170969 0.13411976 0.161054 0.04156951 -0.20710818 -0.10820125 -0.06346106 0.029915351 0.06381184 0.28785247 -0.17896605 0.18632339 -0.016457276 -0.27665794 0.19274476 -0.12892227
at 0.002473315 -0.16939227 -0.11578994 -0.08909669 0.24574465 -0.084641986 0.35519347 -0.0030249336 -0.09822699 -0.089406766 -0.07655049 -0.04231428 0.09093976 -0.20652673 -0.1497983 -0.04195569 0.15340151 0.032615688 -0.16514431 -0.26766834 -0.11513107 -0.004026406 0.14620514 0.03799146 0.3063538 -0.120669045 -0.09310287 0.19730254 0.02694286 -0.08673354 0.109778255 -0.033346973 -0.512994 0.026899306 0.18643725 0.1029071 0.03086783 -0.21697298 -0.25972643 0.20664017 0.25857288 -0.075048186 -0.08791759 -0.061446257 0.20424813 -0.2537206 0.24524444 0.13915798 -0.08481818 -0.057450306 0.102085225 -0.066433325 0.07810613 -0.11259578 0.04527386 0.08477017 -0.07854682 -0.09223386 0.021512045 -0.136904 -0.17167109 -0.08863815 0.14936973 0.30511647 0.050318338 0.23506357 -0.07231757 0.41251183 -0.052118782 0.019369632 -0.29274324 0.07057676 -0.12794176 -0.13739261 0.037832912 0.23107041 -0.12534016 0.30027515 -0.13788651 0.31441996 0.123823605 -0.19437322 -0.22605051 -0.24572955 0.14628139 0.13467489 0.15856975 0.04282266 -0.2020398 -0.11081198 -0.06317576 0.025631612 0.071300946 0.2815049 -0.17293435 0.18151298 -0.0155183375 -0.2607218 0.18981342 -0.13707882
on 0.00094113505 -0.18376786 -0.13056982 -0.09729228 0.27044058 -0.08725617 0.3886764 -0.0008262426 -0.10893403 -0.09726668 -0.089208566 -0.052769255 0.09585509 -0.22797535 -0.16706571 -0.04168476 0.1642342 0.030379022 -0.1758641 -0.28717613 -0.12761357 -0.00270508 0.1516996 0.03082581 0.33414894 -0.13607563 -0.09489782 0.20771278 0.033474546 -0.09830774 0.12882616 -0.037228443 -0.5469007 0.030936498 0.20370407 0.11428785 0.034351964 -0.23283124 -0.27260816 0.22399408 0.28039148 -0.080419414 -0.08668464 -0.06343698 0.22404347 -0.26629093 0.26644373 0.14861752 -0.08604956 -0.063034594 0.11608198 -0.07594254 0.082759224 -0.1303199 0.049258314 0.09124721 -0.08613108 -0.10079693 0.0236483 -0.14387041 -0.18187542 -0.10240397 0.15649849 0.32111543 0.060797267 0.25142992 -0.07601812 0.44604084 -0.0575789 0.018290058 -0.30893376 0.07384578 -0.14044128 -0.14941487 0.038389787 0.24957636 -0.13541427 0.32487938 -0.14563748 0.34336382 0.13046966 -0.20853867 -0.24150659 -0.2629823 0.15979883 0.1418801 0.16645323 0.041674078 -0.21831554 -0.118398964 -0.07255652 0.026975952 0.07196394 0.3016477 -0.18631919 0.20123294 -0.015662955 -0.2833707 0.20283592 -0.13982664
out -0.0021044072 -0.19378726 -0.13074493 -0.10149085 0.27793562 -0.08958518 0.40002716 -0.0013373977 -0.10610602 -0.096365236 -0.092393786 -0.053176243 0.10206933 -0.23741123 -0.1741685 -0.03743348 0.16471475 0.030196806 -0.1834792 -0.2942758 -0.1292572 -0.0093494775 0.161261 0.038535472 0.34717909 -0.13421406 -0.09708206 0.21579085 0.02782293 -0.104546025 0.1281183 -0.038817916 -0.56425166 0.028974228 0.21235082 0.12091573 0.03746472 -0.2432708 -0.28424636 0.22921614 0.28600937 -0.08638769 -0.08993346 -0.077030785 0.23835468 -0.2781363 0.27746055 0.15509543 -0.09845449 -0.056655318 0.11878451 -0.0740673 0.08301206 -0.12680677 0.057606332 0.095743895 -0.096586704 -0.10770031 0.029321136 -0.15168634 -0.19177417 -0.10319001 0.16776398 0.3346211 0.061727643 0.2586746 -0.07667595 0.4575849 -0.061281376 0.012897948 -0.31725457 0.07953474 -0.14484856 -0.14761618 0.042488813 0.25853828 -0.13459635 0.34060416 -0.15268171 0.3526561 0.1277511 -0.21544924 -0.25695583 -0.2772079 0.16190831 0.14310542 0.17404781 0.04814953 -0.22247535 -0.12258637 -0.06858375 0.028270977 0.07364741 0.31339 -0.1968278 0.20397756 -0.012483452 -0.28966367 0.21280584 -0.14876309
are -0.005459335 -0.19054963 -0.12887451 -0.10786523 0.26552635 -0.08379678 0.37523437 -0.006949418 -0.096419744 -0.07787455 -0.09529541 -0.042260244 0.0980784 -0.22812566 -0.16626695 -0.04221767 0.15621686 0.035783008 -0.16500226 -0.27353945 -0.13341495 0.0043186047 0.15331613 0.038701326 0.30986047 -0.13506302 -0.09795023 0.20164552 0.03679486 -0.103514135 0.12077963 -0.019845279 -0.53899324 0.029893782 0.20214063 0.11484362 0.037201747 -0.2169219 -0.27074492 0.21690314 0.26819375 -0.08731836 -0.08330327 -0.06951191 0.23317051 -0.276665 0.26364988 0.14999792 -0.08041363 -0.057853106 0.10417849 -0.076500215 0.07480541 -0.121639386 0.04407123 0.087530114 -0.08421141 -0.10456496 0.024697332 -0.14990938 -0.17370005 -0.09309855 0.16153704 0.32481062 0.06455991 0.2430827 -0.07630912 0.43432808 -0.057756048 0.009969137 -0.3084253 0.06456757 -0.13753486 -0.14938238 0.04210287 0.24585213 -0.12551118 0.31985232 -0.14914191 0.33518642 0.13183089 -0.19380529 -0.2370562 -0.26173788 0.15294655 0.14166307 0.1593048 0.045973502 -0.21263084 -0.119087964 -0.05941725 0.034413587 0.072873175 0.29782 -0.1849659 0.1861507 -0.00872923 -0.2845423 0.18903609 -0.1377244
be 0.0013796182 -0.19133969 -0.13584222 -0.10808343 0.27652594 -0.08884865 0.3987003 -0.006968931 -0.105977714 -0.08865238 -0.09473031 -0.047006693 0.09580858 -0.24139237 -0.16681935 -0.046219867 0.1657237 0.030454839 -0.1858539 -0.2915404 -0.1314823 -0.0005529113 0.15272456 0.039518356 0.33150995 -0.13169125 -0.100014135 0.22201687 0.03432364 -0.09992965 0.13009757 -0.026476784 -0.5682187 0.030732708 0.21265234 0.118753515 0.04193106 -0.23583975 -0.2827012 0.2231408 0.28579372 -0.08130046 -0.09202847 -0.075548984 0.23525213 -0.28376004 0.27366814 0.1600649 -0.09388618 -0.05843879 0.10862674 -0.072453536 0.088959835 -0.1352865 0.049398456 0.088844694 -0.09558909 -0.105157755 0.030947587 -0.15922831 -0.18974236 -0.0997141 0.17041357 0.33982342 0.057032544 0.25757593 -0.07912583 0.46376258 -0.062308993 0.015631843 -0.3215024 0.072602026 -0.14336182 -0.15462174 0.04399562 0.25383398 -0.13171323 0.33448267 -0.15226749 0.34736535 0.13355623 -0.2070079 -0.24835391 -0.27091435 0.15998268 0.14738744 0.16870952 0.045826074 -0.22819631 -0.122578144 -0.06648222 0.03639025 0.07611018 0.31130475 -0.18728852 0.20644988 -0.015635554 -0.30014017 0.20276684 -0.14102358
your 0.0029856486 -0.18728325 -0.12412802 -0.105859004 0.27412447 -0.087469295 0.39022616 -0.005768695 -0.10190644 -0.08827856 -0.08811491 -0.04195935 0.10079496 -0.23345141 -0.16134289 -0.047823664 0.15352885 0.034198698 -0.1720248 -0.27518612 -0.1271602 -0.00069062907 0.15353157 0.032219004 0.33221313 -0.12816413 -0.10220727 0.20682724 0.031777017 -0.09935986 0.124680124 -0.028378952 -0.5475752 0.03256063 0.20624068 0.11388813 0.03501175 -0.23084864 -0.27111617 0.22365478 0.27293435 -0.08625736 -0.09174823 -0.07263462 0.22987619 -0.2749488 0.27088764 0.15522008 -0.09184121 -0.060051564 0.10629988 -0.06986466 0.08547232 -0.13020073 0.044852804 0.091109164 -0.08753884 -0.10755808 0.029856542 -0.15848632 -0.18209606 -0.09635185 0.16533971 0.33118695 0.057926428 0.25714868 -0.07449377 0.44097948 -0.055446364 0.014063068 -0.31281856 0.06636638 -0.13611138 -0.1453015 0.03893499 0.24578837 -0.13220862 0.32731286 -0.14986953 0.3461608 0.13510877 -0.20180663 -0.24829736 -0.2600129 0.15876831 0.13888285 0.1692524 0.05155375 -0.21653181 -0.12251431 -0.061228566 0.026717013 0.072274834 0.29434714 -0.18662989 0.20448716 -0.016371459 -0.28623232 0.20186554 -0.14670171
lists -0.0028730435 -0.1805328 -0.11776224 -0.096570395 0.25541028 -0.07032597 0.36769286 0.0019588193 -0.09455868 -0.07676844 -0.087707214 -0.03885652 0.09496625 -0.22055036 -0.15279071 -0.039986197 0.14177056 0.032883856 -0.16308099 -0.26133788 -0.12200279 0.009268811 0.14674498 0.036851726 0.306696 -0.12859155 -0.095433116 0.2035656 0.03012451 -0.10071333 0.11461801 -0.027168622 -0.5086761 0.029945219 0.19756302 0.113661714 0.034011494 -0.21571186 -0.26050547 0.20973295 0.26112592 -0.08156501 -0.07703877 -0.06499663 0.22238268 -0.25925657 0.2510786 0.14807542 -0.08051122 -0.052280154 0.09549836 -0.0784767 0.07301439 -0.114212126 0.049625 0.08561854 -0.08598846 -0.103459805 0.024016146 -0.1424372 -0.16785528 -0.09819306 0.1598022 0.3143516 0.052190505 0.23955911 -0.06827587 0.419742 -0.055344153 0.010632787 -0.29315707 0.060170993 -0.13103807 -0.1421637 0.041739956 0.23143199 -0.12112461 0.31357643 -0.14497803 0.3238556 0.12691846 -0.191028 -0.22903112 -0.255918 0.14468095 0.12684281 0.14963168 0.04396072 -0.20815809 -0.10911885 -0.057067648 0.03371636 0.07003536 0.2828031 -0.18227881 0.1915505 -0.009234318 -0.2732058 0.18579413 -0.13390626
by -0.0069460343 -0.16238865 -0.10937902 -0.08942872 0.23692991 -0.078199975 0.34260303 -0.006576712 -0.08526119 -0.079381794 -0.072902985 -0.040856797 0.08333662 -0.20019944 -0.1413176 -0.04136602 0.14463082 0.02525061 -0.15561177 -0.2517839 -0.1077007 -0.007874614 0.14010641 0.028764362 0.2862416 -0.12025539 -0.08489403 0.1834538 0.030320745 -0.08268056 0.11311161 -0.02273953 -0.48085746 0.026109667 0.17247537 0.10265249 0.035347007 -0.19876224 -0.24104005 0.18977422 0.24504745 -0.07382908 -0.08068604 -0.0606956 0.2019876 -0.2366095 0.24027902 0.13802971 -0.07405726 -0.049703807 0.101483405 -0.066079766 0.069977775 -0.11154691 0.039870415 0.084106356 -0.07966905 -0.092350245 0.021802355 -0.12731192 -0.15544346 -0.08612763 0.142563 0.28758913 0.056088883 0.2247657 -0.07093207 0.39717603 -0.05085095 0.009183625 -0.27551728 0.057154804 -0.12075186 -0.12699938 0.039848812 0.22382168 -0.112448126 0.29222324 -0.12903033 0.3047227 0.117659144 -0.18431689 -0.219121 -0.23041698 0.13789825 0.122111976 0.14822815 0.041163806 -0.1937724 -0.10540678 -0.05504708 0.024569327 0.058894917 0.2585754 -0.16150436 0.1802404 -0.011071631 -0.25731066 0.17969005 -0.12276024
but -0.0044331285 -0.19112898 -0.13347998 -0.10095326 0.28743306 -0.089412466 0.40317982 -0.0016542614 -0.113323666 -0.09492653 -0.09739296 -0.046902604 0.10107061 -0.2380364 -0.17517452 -0.038061976 0.17176811 0.03614977 -0.18841344 -0.30069336 -0.1281136 -0.0004569218 0.15587682 0.038700886 0.34941024 -0.13701016 -0.09803882 0.21510461 0.034869473 -0.09412724 0.13469996 -0.036779642 -0.5772865 0.027541548 0.2068246 0.12404956 0.04111718 -0.24761738 -0.28506103 0.23432384 0.2899194 -0.08893419 -0.0988633 -0.07471085 0.23358484 -0.28333893 0.28455487 0.15611081 -0.09081881 -0.06358903 0.11632354 -0.07241291 0.08252432 -0.12990746 0.052813884 0.09289065 -0.090321116 -0.10739223 0.026665153 -0.16189227 -0.18817997 -0.09813872 0.1638525 0.33622566 0.06899993 0.26884505 -0.07808173 0.46971712 -0.058454223 0.01889345 -0.32698163 0.07169394 -0.1509047 -0.1537593 0.043313447 0.26455048 -0.14243409 0.34312585 -0.15458944 0.3623032 0.13425817 -0.22074156 -0.2569528 -0.27533475 0.16852827 0.14702101 0.1765713 0.045438703 -0.22659937 -0.12412067 -0.073904425 0.028888531 0.07091461 0.3205198 -0.19232948 0.20527487 -0.013116414 -0.296671 0.21353707 -0.14519486
use -0.006226546 -0.16974995 -0.120713286 -0.0965178 0.24932908 -0.07349874 0.3621629 -0.003238837 -0.09724234 -0.079770885 -0.08679551 -0.03742616 0.089026496 -0.20882148 -0.15830545 -0.041309595 0.14515339 0.02110668 -0.1631524 -0.25599095 -0.11690983 -0.0048976946 0.14090197 0.03601744 0.31002134 -0.11810398 -0.09568205 0.19845241 0.02783827 -0.093855575 0.121250324 -0.019910704 -0.50215364 0.029272871 0.18778664 0.10817389 0.02852622 -0.20928808 -0.24707335 0.20211904 0.25253826 -0.07161292 -0.08023045 -0.07326614 0.21535392 -0.2502454 0.24778159 0.13705063 -0.08116555 -0.05198294 0.10133453 -0.06481391 0.06887582 -0.114036284 0.041068047 0.08102365 -0.086067975 -0.09122024 0.023853704 -0.14044832 -0.16819991 -0.08803033 0.14767025 0.30363867 0.05089933 0.2394754 -0.073615074 0.41114622 -0.043117702 0.010327473 -0.28831074 0.05490555 -0.13324061 -0.13138294 0.032068934 0.22491257 -0.12040488 0.30993643 -0.14033037 0.31953222 0.11965922 -0.19341013 -0.2291811 -0.2448285 0.14856529 0.12278262 0.15324658 0.043582276 -0.20671132 -0.11253927 -0.05695097 0.02475253 0.05916299 0.27431569 -0.17310464 0.19389006 -0.009548305 -0.27146623 0.1927432 -0.13524505
an -0.0051303306 -0.19369027 -0.13399096 -0.09553091 0.27423003 -0.085965045 0.3956139 -0.009177237 -0.10782438 -0.08443921 -0.09166372 -0.04568796 0.09624211 -0.23620315 -0.16854742 -0.044961657 0.15674148 0.033067293 -0.17649457 -0.28195426 -0.12726776 0.0012398284 0.16007745 0.036399573 0.3264831 -0.13268629 -0.10489951 0.21604763 0.030229984 -0.09505876 0.1233561 -0.028973235 -0.55468905 0.03183836 0.20561862 0.11515401 0.044344805 -0.22961402 -0.274688 0.21821782 0.278255 -0.085884504 -0.088964574 -0.07288977 0.2328943 -0.27829242 0.2706283 0.15769528 -0.09428031 -0.055042557 0.1072458 -0.08045035 0.07937534 -0.12164126 0.045142356 0.08856663 -0.093838476 -0.11052843 0.025807995 -0.15187085 -0.18241459 -0.10546572 0.1576067 0.335213 0.0575202 0.25471365 -0.08164715 0.44867444 -0.057182126 0.008587717 -0.31388485 0.069726184 -0.14314508 -0.14636293 0.040437885 0.24980056 -0.13407898 0.33625713 -0.15326571 0.35173735 0.1352605 -0.20539246 -0.25382033 -0.26358756 0.16087915 0.14412852 0.16802138 0.045334894 -0.22302318 -0.11810293 -0.061677586 0.02845784 0.06737499 0.29912713 -0.18817113 0.1978653 -0.017678143 -0.2915576 0.20209458 -0.1480408
project_gutenberg -0.0030368082 -0.20738569 -0.14730081 -0.11054352 0.3057365 -0.078170575 0.41370946 -0.009441612 -0.114938565 -0.08274124 -0.09153002 -0.046647746 0.09908978 -0.23883197 -0.18036771 -0.032608293 0.16410828 0.04353213 -0.1790619 -0.30716577 -0.13361152 0.010221156 0.1725632 0.036115754 0.32788545 -0.15092792 -0.11990608 0.21519998 0.04927377 -0.12090808 0.1285536 -0.012837385 -0.58229417 0.010326452 0.22496097 0.12841316 0.0581598 -0.24331667 -0.29404765 0.23233621 0.3012792 -0.10128121 -0.08258026 -0.06215594 0.25179744 -0.30132115 0.29998964 0.16939485 -0.0905905 -0.05594365 0.106780656 -0.08135909 0.08556246 -0.14024661 0.054306287 0.09583831 -0.089029305 -0.12096585 0.028836245 -0.18822505 -0.19728883 -0.114380844 0.17370315 0.3488542 0.055255774 0.26085046 -0.09631573 0.47058445 -0.07518616 0.018209001 -0.34830678 0.056555726 -0.13939184 -0.15209575 0.04533878 0.26868683 -0.14962983 0.35032892 -0.16951555 0.3591847 0.15070108 -0.20837498 -0.2628811 -0.27467874 0.17560954 0.16566184 0.18485697 0.05166245 -0.22870907 -0.11750624 -0.06877322 0.024570024 0.07562093 0.32864207 -0.20817325 0.20508163 -0.0109073315 -0.3078099 0.21573403 -0.14884031
not -0.0031913903 -0.19584659 -0.12793425 -0.10559856 0.27400854 -0.08228547 0.390736 -0.009950029 -0.10310465 -0.089982204 -0.093480065 -0.0488505 0.10190291 -0.22450069 -0.17075522 -0.037002143 0.16294125 0.03346835 -0.17511186 -0.28625503 -0.12666549 0.0010691166 0.14857835 0.037103627 0.32661787 -0.14041197 -0.1046874 0.21666473 0.031221192 -0.09598429 0.117270745 -0.030063806 -0.5508385 0.025997521 0.20101346 0.12252277 0.03842644 -0.22944494 -0.2771582 0.22571242 0.2825229 -0.08844197 -0.08612325 -0.07203833 0.23296654 -0.27450487 0.26741007 0.15164831 -0.092065714 -0.059220366 0.11722673 -0.074183375 0.08266298 -0.13394459 0.04514452 0.0904213 -0.08950107 -0.111808084 0.02165259 -0.15435775 -0.18333521 -0.100014776 0.1580685 0.32531285 0.05517627 0.25911927 -0.07717108 0.45236716 -0.060753964 0.017522223 -0.31970677 0.0766586 -0.14655735 -0.14293477 0.037839755 0.2536084 -0.13673556 0.32637283 -0.15061672 0.35021213 0.13362347 -0.21458822 -0.24792287 -0.2682214 0.16314799 0.14553382 0.17267571 0.045876153 -0.21694607 -0.12098551 -0.06246908 0.036118854 0.0698388 0.31035694 -0.18680817 0.20044279 -0.017497478 -0.2881243 0.20233999 -0.13561212
python 0.0028153304 -0.19211821 -0.1371409 -0.12146075 0.2752881 -0.069296025 0.38309973 -0.00509114 -0.09783378 -0.06888551 -0.09883819 -0.047677055 0.095816664 -0.2310354 -0.17078194 -0.040407352 0.15696092 0.03472248 -0.17095135 -0.27395982 -0.1400626 0.016836287 0.1528843 0.039985865 0.29904127 -0.1283556 -0.110946976 0.20879537 0.046739474 -0.11236393 0.116735235 -0.010033803 -0.5466626 0.020544527 0.20251411 0.1165804 0.05691843 -0.21433032 -0.27622464 0.22215247 0.27109873 -0.09477856 -0.078827344 -0.06450557 0.23997366 -0.2769013 0.2726925 0.15664837 -0.06840152 -0.050039724 0.09455042 -0.06924531 0.07500478 -0.12785743 0.04554274 0.082034975 -0.08697597 -0.122337945 0.03546078 -0.1654508 -0.17033425 -0.09708351 0.17452313 0.32161966 0.06618097 0.24297623 -0.078282915 0.4377323 -0.07215791 0.0025653606 -0.31865686 0.05756913 -0.14065214 -0.1556956 0.046093665 0.24797419 -0.1312002 0.3285713 -0.15020142 0.3368259 0.14448047 -0.18867494 -0.24877203 -0.26822326 0.15320377 0.14964242 0.15739188 0.05202528 -0.21067554 -0.1129027 -0.04594498 0.031620424 0.06899688 0.30920452 -0.18164575 0.1885874 -0.0015813232 -0.29771158 0.18804976 -0.12819679
when -0.008607327 -0.18073733 -0.11613062 -0.090223156 0.25106403 -0.07963689 0.3764186 -0.0041599986 -0.10196776 -0.09394794 -0.08330691 -0.043731824 0.08939824 -0.22197609 -0.1557761 -0.04119198 0.1545342 0.03226426 -0.17138253 -0.27681538 -0.124869965 -0.002183015 0.1437292 0.035956793 0.32278055 -0.13124546 -0.09759954 0.20851262 0.021398924 -0.09346273 0.11748287 -0.03323019 -0.52635974 0.03910916 0.19108242 0.10990422 0.033007234 -0.21967918 -0.26462215 0.20886049 0.26785555 -0.07073971 -0.08987089 -0.06512618 0.2161279 -0.25781626 0.25919884 0.14083956 -0.08422025 -0.05867283 0.11300976 -0.07706562 0.08513634 -0.123798735 0.04848526 0.08506197 -0.085760094 -0.09453712 0.024061592 -0.14234653 -0.17289351 -0.08858641 0.14737971 0.309266 0.05945789 0.24328478 -0.07609912 0.43365005 -0.0511781 0.018127985 -0.29202574 0.06752182 -0.13489546 -0.14056875 0.03963322 0.24205622 -0.13290732 0.31726176 -0.14359146 0.33479828 0.12627979 -0.2003861 -0.2350243 -0.24887896 0.15453438 0.13033785 0.15926087 0.044983685 -0.21209797 -0.115027264 -0.0670913 0.031080125 0.06961875 0.2820982 -0.17996027 0.19182782 -0.011921388 -0.2751457 0.1932549 -0.13323964
from 0.0015897482 -0.18084331 -0.12396959 -0.09349624 0.24952345 -0.07341975 0.3545991 -0.0072744447 -0.09736136 -0.08169324 -0.08084744 -0.043842733 0.09556079 -0.21198587 -0.15834442 -0.033578753 0.14929989 0.032702617 -0.15661782 -0.26146993 -0.11941331 -0.0014622889 0.14411215 0.031705614 0.29849792 -0.12129156 -0.09326103 0.19151275 0.029749375 -0.090330854 0.109397665 -0.017910117 -0.5018557 0.022939181 0.19162343 0.11284936 0.040223863 -0.20454898 -0.2565018 0.2078909 0.26026142 -0.08368013 -0.076602474 -0.059852496 0.2160162 -0.2568473 0.2532984 0.13892977 -0.07956706 -0.058254544 0.10149203 -0.06669453 0.06713157 -0.119292885 0.04809886 0.07531225 -0.07835936 -0.09544542 0.027785914 -0.15041655 -0.16709518 -0.092537835 0.15051314 0.30334488 0.055551305 0.23816918 -0.0727279 0.41035655 -0.05402727 0.011519474 -0.29357916 0.06335127 -0.13162953 -0.13730507 0.039489083 0.22916205 -0.12035172 0.30937016 -0.13336468 0.31581768 0.124770194 -0.18894452 -0.22563641 -0.24273527 0.15030436 0.13639675 0.15957928 0.042242914 -0.19646826 -0.104250334 -0.061846897 0.025587738 0.060234584 0.27861044 -0.17844012 0.18192936 -0.0134382965 -0.2730272 0.18304332 -0.12403976
you_can -0.00314561 -0.18514706 -0.12957981 -0.1035814 0.2748472 -0.08899461 0.38784704 -0.009929732 -0.105134085 -0.08369344 -0.09311537 -0.044491306 0.09272472 -0.23116633 -0.16956772 -0.047865104 0.15984531 0.029787973 -0.17024831 -0.28365073 -0.13432342 0.00331396 0.15140559 0.032614823 0.3263786 -0.13045155 -0.09761789 0.21849312 0.031193182 -0.09761683 0.12747853 -0.025367614 -0.54822236 0.031112857 0.20788278 0.1231989 0.0410008 -0.22589462 -0.27353883 0.22219352 0.2788836 -0.0814716 -0.089143254 -0.07465981 0.22772625 -0.2727354 0.27321047 0.15969771 -0.08318483 -0.059052046 0.10248092 -0.07146944 0.083350465 -0.13281506 0.049174584 0.083686024 -0.094893046 -0.107336015 0.032658603 -0.15527551 -0.1789802 -0.09794275 0.16715564 0.3376643 0.05422871 0.26159334 -0.07458578 0.44758478 -0.0612135 0.009880675 -0.30817726 0.060883902 -0.13719317 -0.14664379 0.045270946 0.252102 -0.13655622 0.33686024 -0.14883469 0.34813035 0.12985301 -0.19932337 -0.24295397 -0.26834673 0.1552586 0.14583755 0.1699994 0.052611377 -0.22013497 -0.11341535 -0.060446274 0.032174896 0.07310081 0.30685684 -0.18649004 0.20194238 -0.0051606097 -0.29536423 0.20651557 -0.13829236
what -0.0031348676 -0.16733316 -0.11052884 -0.09671255 0.24364553 -0.082953416 0.35251993 -0.002528565 -0.09715638 -0.08378998 -0.080454305 -0.043452043 0.086287536 -0.20886888 -0.15240793 -0.036897168 0.15145278 0.026099388 -0.15315554 -0.2554926 -0.114283346 0.0044329823 0.14126277 0.035176452 0.30012777 -0.12472195 -0.087213345 0.19287468 0.02511244 -0.082893945 0.11574372 -0.025333565 -0.49679995 0.031647492 0.18114711 0.10708592 0.034507416 -0.20807064 -0.2516226 0.19766012 0.2536595 -0.08102856 -0.08341672 -0.06323483 0.20835446 -0.25234035 0.24344203 0.13326222 -0.086526066 -0.051593672 0.10448422 -0.0722499 0.0730371 -0.11787008 0.048268143 0.079482615 -0.08254814 -0.09202682 0.018778894 -0.14325154 -0.1581308 -0.09275957 0.15153082 0.3033571 0.052752633 0.2298167 -0.07020779 0.40223166 -0.05430219 0.018106151 -0.2844049 0.06997188 -0.12471033 -0.13539308 0.034559853 0.2216817 -0.120241605 0.3004845 -0.13147943 0.31696013 0.12260561 -0.18469016 -0.22172034 -0.24432479 0.14716664 0.122956455 0.15560336 0.03861241 -0.19344486 -0.10286888 -0.058046956 0.026203848 0.06008126 0.27856848 -0.16311681 0.18179294 -0.01563478 -0.2568459 0.18604028 -0.122894585
little -0.0025739945 -0.19874853 -0.12959974 -0.102247365 0.27807748 -0.0952205 0.3896845 -0.006387516 -0.11528628 -0.09083993 -0.09268285 -0.050560933 0.09664966 -0.22769073 -0.17009118 -0.033872582 0.17088072 0.0331142 -0.17694123 -0.2870945 -0.13040146 -0.0054273605 0.1555743 0.040563595 0.34116563 -0.13808663 -0.09994135 0.21720146 0.02842482 -0.10416509 0.120673016 -0.03256416 -0.5666075 0.031199632 0.20629096 0.1169476 0.044804614 -0.23462711 -0.28098884 0.23392588 0.2804222 -0.07898717 -0.09405 -0.065615006 0.2277434 -0.27918237 0.26767212 0.1586898 -0.08766623 -0.061840657 0.11703119 -0.07187905 0.08205614 -0.1342296 0.05438659 0.099267595 -0.09577713 -0.10790221 0.027625768 -0.16012868 -0.17884196 -0.10571676 0.1610083 0.33041888 0.065193854 0.25707754 -0.08725588 0.4577266 -0.05977752 0.016524289 -0.3215778 0.07558968 -0.14635776 -0.14294696 0.040949885 0.2543116 -0.13242288 0.33714354 -0.14762065 0.34584105 0.13107114 -0.20952614 -0.25671563 -0.27024284 0.16443813 0.14404285 0.17950287 0.050012074 -0.227588 -0.11632171 -0.068767786 0.026796943 0.07887336 0.3139241 -0.19366252 0.20006089 -0.020178108 -0.30115798 0.20891623 -0.13640592
into -4.87981e-05 -0.20091535 -0.14226466 -0.105564885 0.28358212 -0.087672144 0.41349018 -0.0065883575 -0.10861709 -0.09779522 -0.096368976 -0.055322878 0.104822986 -0.24456605 -0.17795882 -0.045444813 0.17681748 0.035014573 -0.19088025 -0.30091518 -0.13329117 0.0030361586 0.16370802 0.037263557 0.34732565 -0.13732722 -0.10392119 0.2204254 0.040117454 -0.11002624 0.12859726 -0.034884643 -0.5813585 0.035360213 0.21631391 0.123093694 0.040274058 -0.24126999 -0.29572427 0.24231921 0.29437852 -0.08516571 -0.09772736 -0.07703117 0.24899553 -0.29853523 0.28262356 0.16687493 -0.094533294 -0.06562336 0.115248725 -0.07736177 0.08115721 -0.13921915 0.056472044 0.09467566 -0.095506005 -0.109913245 0.029409027 -0.16430159 -0.18995254 -0.112157136 0.16571659 0.34593952 0.06220679 0.2676126 -0.08472754 0.47904453 -0.06634085 0.011614162 -0.33477077 0.076672375 -0.15051463 -0.15893261 0.041850187 0.2680614 -0.1360276 0.34755108 -0.15344201 0.36058256 0.1404382 -0.22060855 -0.26743576 -0.27743137 0.16678062 0.15214747 0.17921211 0.05279182 -0.2294081 -0.12048597 -0.074169375 0.031540465 0.07753328 0.3279346 -0.1996121 0.214102 -0.010498002 -0.3124503 0.21082836 -0.15347359
one 0.002742203 -0.17156705 -0.11334211 -0.09264972 0.24864842 -0.08652928 0.35491845 -0.00096891186 -0.10238751 -0.08643251 -0.082885444 -0.040372826 0.08352499 -0.21388325 -0.15336598 -0.042365924 0.14943315 0.027606748 -0.15812583 -0.25768223 -0.11558714 -0.005186891 0.14426741 0.03461836 0.31148535 -0.12392933 -0.090946116 0.19730774 0.025736485 -0.088178575 0.108611755 -0.034299962 -0.49829748 0.028240679 0.18343706 0.10452212 0.037739158 -0.21315204 -0.2540611 0.2027177 0.25132674 -0.077330455 -0.07923648 -0.06518236 0.2030483 -0.24845186 0.24995644 0.13526735 -0.091104634 -0.056224782 0.108612336 -0.06640822 0.07534192 -0.12026232 0.045520097 0.085342154 -0.08417697 -0.09667945 0.024014007 -0.14104371 -0.16418046 -0.091404684 0.14834112 0.2993952 0.05434893 0.23590994 -0.06766097 0.40656292 -0.047803137 0.020182693 -0.278013 0.064142495 -0.12827674 -0.13012968 0.039134838 0.23357502 -0.11983135 0.30067858 -0.14009683 0.31489676 0.12157059 -0.19593702 -0.22507381 -0.2401677 0.14524466 0.12756783 0.15616474 0.045141816 -0.19830655 -0.10591989 -0.061567295 0.029326651 0.06441514 0.27670333 -0.16945606 0.18141323 -0.012046031 -0.25844508 0.1832869 -0.13521828
they -0.009145336 -0.19442539 -0.14014158 -0.10433879 0.2812706 -0.09628238 0.41415364 -0.0077008107 -0.117831536 -0.0915858 -0.097395904 -0.05308972 0.097773574 -0.24508706 -0.18153225 -0.04507388 0.17258759 0.037191346 -0.19086614 -0.30478486 -0.13967401 -0.0072386684 0.1588816 0.03375502 0.34907103 -0.14285704 -0.102281705 0.22050689 0.036767654 -0.09847325 0.12437363 -0.033291977 -0.5845387 0.03355194 0.21029764 0.12059987 0.04536862 -0.24412969 -0.284525 0.24069346 0.2988757 -0.0837996 -0.09442218 -0.06785968 0.23870106 -0.28956118 0.279591 0.16319875 -0.090378225 -0.0597118 0.1258788 -0.0767236 0.09083039 -0.13791722 0.048819836 0.095154725 -0.09589682 -0.11900374 0.02443852 -0.16299866 -0.1927111 -0.108183116 0.16831705 0.34020147 0.06515154 0.26842782 -0.08543837 0.46779603 -0.06636285 0.020316856 -0.33493626 0.082188256 -0.1545122 -0.15418316 0.046491943 0.2667031 -0.13606012 0.35138372 -0.15931366 0.3575615 0.1400332 -0.21833588 -0.258965 -0.27900958 0.16851094 0.15172757 0.18081625 0.047208525 -0.23391475 -0.1218384 -0.06771704 0.03139843 0.08147349 0.32197577 -0.19522083 0.20522857 -0.021435546 -0.30797866 0.21357054 -0.14557241
other 0.00018660194 -0.16024716 -0.1064434 -0.09271143 0.23893934 -0.073636815 0.33906016 0.0015505276 -0.08876274 -0.07113607 -0.07686775 -0.036321186 0.082742244 -0.19443223 -0.14404058 -0.03111307 0.1330961 0.033241663 -0.14915197 -0.24363542 -0.116227426 0.002495774 0.1284685 0.03445207 0.28544158 -0.11721844 -0.086606346 0.18070108 0.030531274 -0.09011773 0.10312677 -0.025513925 -0.4727041 0.029690664 0.17804302 0.10270762 0.034158032 -0.19849266 -0.2346898 0.19605939 0.24353077 -0.06982744 -0.079751305 -0.06379626 0.20314835 -0.23743619 0.23339044 0.12824437 -0.07425854 -0.0466581 0.09802427 -0.06558862 0.07195544 -0.1143716 0.04357619 0.07768712 -0.07465443 -0.094414085 0.030734394 -0.13436314 -0.15054853 -0.08902276 0.14049642 0.28944898 0.05122889 0.21359898 -0.06453321 0.38580322 -0.059182372 0.015098693 -0.26683733 0.055603236 -0.12183667 -0.13228332 0.035394527 0.21656963 -0.11424346 0.28389794 -0.13391249 0.29021776 0.11256746 -0.18050447 -0.20703861 -0.2328868 0.13483195 0.121401146 0.1459673 0.039285053 -0.18534233 -0.09591368 -0.05678909 0.021922968 0.06432389 0.2610607 -0.16770571 0.17218354 -0.015487876 -0.24900076 0.16778654 -0.12053138
have -0.00531139 -0.17317522 -0.11252882 -0.09430221 0.24863441 -0.07367677 0.36396763 0.0005011593 -0.08816689 -0.0873687 -0.08469379 -0.044131603 0.09500896 -0.21743517 -0.1563191 -0.0418642 0.14182714 0.020404574 -0.1659249 -0.25373402 -0.12397021 0.004058559 0.13476317 0.039709184 0.31216386 -0.12861523 -0.09700794 0.19172844 0.026981678 -0.09046913 0.11554536 -0.025549594 -0.5053681 0.031949453 0.19038661 0.11056208 0.028229438 -0.21426466 -0.25301534 0.19988047 0.25581533 -0.08010124 -0.077145346 -0.07058677 0.21434182 -0.25791755 0.254156 0.13541734 -0.08590624 -0.053050283 0.10139576 -0.07772337 0.07607256 -0.111357674 0.039543014 0.08332866 -0.08339106 -0.08960163 0.02198646 -0.13544086 -0.17016062 -0.08331708 0.15121685 0.31016943 0.05998882 0.23727842 -0.06477479 0.41623345 -0.055175252 0.010379034 -0.29047614 0.06593782 -0.12523736 -0.13428941 0.035377044 0.22705767 -0.12357295 0.30534846 -0.14167917 0.32517445 0.11606974 -0.18533576 -0.22416145 -0.24978891 0.14269401 0.12019845 0.14799626 0.03785388 -0.20694137 -0.11676899 -0.054736517 0.030893138 0.06644789 0.27571312 -0.16865261 0.18946278 -0.01345379 -0.26557097 0.19014509 -0.12911047
any -0.0005512275 -0.16718717 -0.1138542 -0.09170776 0.24651912 -0.07149043 0.34499028 -0.0043703686 -0.082566276 -0.07195713 -0.0765208 -0.04028081 0.08154344 -0.20165867 -0.14603895 -0.041737348 0.14542256 0.030393861 -0.14963289 -0.2487533 -0.11078321 0.003376538 0.14076824 0.028870696 0.28630394 -0.11891902 -0.09029482 0.18163946 0.024637353 -0.08779903 0.11415028 -0.027025498 -0.48451242 0.020481 0.18550423 0.09931788 0.036265764 -0.20007117 -0.23776962 0.19517843 0.24395269 -0.08063694 -0.075457275 -0.06553322 0.20338258 -0.2384274 0.24463592 0.13275726 -0.07294409 -0.05508475 0.0944592 -0.06685435 0.07160932 -0.11368367 0.041746117 0.083696656 -0.07740796 -0.09073486 0.023715146 -0.13105626 -0.16411825 -0.08612314 0.14181538 0.29702386 0.04855528 0.23124203 -0.072985254 0.40169102 -0.048869878 0.018883416 -0.27809876 0.056612343 -0.12702248 -0.12782656 0.03909405 0.22461879 -0.1219897 0.28670755 -0.13378392 0.30133337 0.11653189 -0.18818088 -0.22025931 -0.23727836 0.13512404 0.12784913 0.14209624 0.044056736 -0.18805297 -0.10504587 -0.052120574 0.021448988 0.05813585 0.2599481 -0.16202693 0.16992159 -0.014932538 -0.2528621 0.17328241 -0.12565115
down 0.001242179 -0.17424442 -0.11340987 -0.08905414 0.24593644 -0.085952066 0.35121983 -0.0017193486 -0.09273221 -0.08676356 -0.08070784 -0.04999744 0.09000251 -0.20715442 -0.15173452 -0.031592023 0.1528106 0.028515503 -0.1602935 -0.26170954 -0.1128491 -0.008988261 0.1372443 0.03561182 0.3045644 -0.12024495 -0.091391705 0.18553917 0.022709982 -0.082238555 0.11373927 -0.038117934 -0.49951723 0.028330924 0.17443776 0.100726284 0.03508347 -0.20726658 -0.2484822 0.20311765 0.24852878 -0.066906735 -0.08127258 -0.05763643 0.20087674 -0.24637976 0.24089272 0.13552916 -0.08896997 -0.056277696 0.105896376 -0.0683504 0.07576945 -0.11935034 0.047277752 0.08582421 -0.08515206 -0.09808361 0.02655782 -0.13839126 -0.16295858 -0.08694832 0.14486842 0.29143587 0.053929873 0.22887766 -0.07552702 0.41012865 -0.055551946 0.019971434 -0.28446192 0.07118813 -0.12908088 -0.12677853 0.03643882 0.22942987 -0.120838426 0.3010969 -0.13322343 0.30741647 0.11182616 -0.18642926 -0.22146666 -0.23304713 0.14121933 0.1329006 0.15150152 0.03557812 -0.19586246 -0.10431349 -0.06602444 0.024867665 0.07156142 0.27484143 -0.16527098 0.18246324 -0.01217421 -0.25438645 0.1868726 -0.12653546
work -0.0041756537 -0.14811616 -0.10123735 -0.07955169 0.2242684 -0.06957677 0.305276 -0.004544165 -0.07656843 -0.072069705 -0.06541936 -0.037435643 0.07484232 -0.18441091 -0.13022554 -0.035125285 0.12715167 0.025408119 -0.14303061 -0.23038308 -0.107506715 -0.0064298892 0.12270779 0.03390944 0.2646705 -0.10698426 -0.07796772 0.16741295 0.026509212 -0.07416976 0.10555665 -0.022958057 -0.43791664 0.019575313 0.16832103 0.09692932 0.03390093 -0.18277264 -0.22188175 0.18047206 0.21705861 -0.062254492 -0.070791245 -0.051460877 0.18083397 -0.21576293 0.2170337 0.116618775 -0.0728154 -0.05455248 0.08860102 -0.06289874 0.067559145 -0.101530895 0.034084495 0.0741364 -0.075907215 -0.08516468 0.01815497 -0.124345794 -0.1457436 -0.07626648 0.13479103 0.2680374 0.045415852 0.20220882 -0.06749232 0.36139756 -0.048196267 0.0149017945 -0.250287 0.04963008 -0.105910644 -0.11647116 0.035029862 0.20134762 -0.11452325 0.25983334 -0.12384571 0.27052602 0.10840602 -0.16280897 -0.20052476 -0.20942347 0.123579234 0.105888434 0.13084254 0.036386006 -0.17578563 -0.09468279 -0.04610052 0.026238315 0.054838087 0.2402022 -0.15479979 0.1600697 -0.0069745276 -0.23375355 0.1591196 -0.118212454
up -0.005612568 -0.169798 -0.11226538 -0.087712064 0.24611834 -0.077639215 0.3452704 0.0023784235 -0.097318895 -0.07786618 -0.08056258 -0.049098734 0.082721524 -0.20223661 -0.15280944 -0.036369015 0.14507988 0.025733119 -0.15753968 -0.25570387 -0.11103916 -0.0005211672 0.13389608 0.03400493 0.30255577 -0.12240208 -0.090990804 0.18747424 0.023904953 -0.08286812 0.11258 -0.03420093 -0.4920861 0.023311764 0.17699434 0.101213194 0.0387213 -0.2069909 -0.2524841 0.20210162 0.25366864 -0.06623115 -0.08250259 -0.059382204 0.20234917 -0.24755475 0.24138975 0.13899347 -0.07545606 -0.053699568 0.10233944 -0.06982919 0.07112967 -0.118844785 0.04969847 0.08597892 -0.0773752 -0.10035364 0.02546192 -0.13993187 -0.16228448 -0.087631024 0.14098409 0.292197 0.05554655 0.22182618 -0.074300475 0.3996995 -0.054414984 0.017950555 -0.28345755 0.062543154 -0.12146706 -0.12607826 0.035448983 0.22645864 -0.12187214 0.29883108 -0.13307478 0.30281144 0.1109657 -0.18985566 -0.21890494 -0.23918955 0.13901539 0.1289751 0.15845424 0.04101613 -0.19406055 -0.10044766 -0.05781574 0.027824674 0.06591886 0.27566412 -0.16942939 0.1780083 -0.014385801 -0.26007932 0.17585005 -0.12185587
which 0.0013600404 -0.1865631 -0.12087419 -0.09968875 0.26582813 -0.08245893 0.37754634 -0.005897995 -0.09998745 -0.082873724 -0.08263604 -0.045729466 0.08932168 -0.22314607 -0.16409431 -0.04188268 0.15135722 0.0304736 -0.1685531 -0.2715163 -0.12591603 3.8613533e-05 0.14519401 0.033740517 0.32275212 -0.12540062 -0.09081525 0.20446904 0.027637161 -0.089208856 0.12247047 -0.034627568 -0.5303553 0.028455095 0.19378904 0.116458215 0.04085917 -0.21880627 -0.27051076 0.21256784 0.2679004 -0.076233365 -0.08743882 -0.072177455 0.22029427 -0.2644613 0.2650235 0.14511873 -0.083319984 -0.06157248 0.10843656 -0.07657707 0.08068542 -0.122706585 0.04924658 0.084563754 -0.09268124 -0.09963369 0.021729013 -0.15187627 -0.17435297 -0.09268789 0.15153898 0.3200404 0.054557424 0.24697208 -0.080423266 0.43768254 -0.063019186 0.013768482 -0.2974247 0.063640855 -0.13647586 -0.14179474 0.038887627 0.24301276 -0.13276722 0.32268658 -0.14353798 0.33332485 0.12720364 -0.20161419 -0.23670514 -0.25267634 0.15344943 0.13318829 0.166496 0.0400986 -0.20819448 -0.11268924 -0.06191748 0.03239262 0.07153757 0.29605174 -0.18398733 0.19007644 -0.010880748 -0.27304593 0.19048691 -0.13990727
so -0.007044748 -0.17391542 -0.11454157 -0.09258915 0.2545084 -0.083263665 0.36572874 -0.0056571546 -0.096184894 -0.083292566 -0.0743982 -0.04155553 0.09394685 -0.21504144 -0.14935124 -0.03488664 0.14652392 0.03334981 -0.165615 -0.2631604 -0.121518746 -0.0105831195 0.13877101 0.031590585 0.31294164 -0.12472508 -0.0914875 0.19420879 0.029480007 -0.0885852 0.11639363 -0.040857743 -0.51509225 0.037793737 0.1898349 0.10954632 0.038743068 -0.21637726 -0.25404394 0.20679703 0.25703207 -0.0682666 -0.08995399 -0.065008014 0.20765272 -0.2564096 0.25178948 0.13841115 -0.08438393 -0.057594154 0.108111374 -0.07348332 0.07802597 -0.11863095 0.043465894 0.08539012 -0.08569367 -0.094471976 0.018010627 -0.13397285 -0.1681071 -0.09221037 0.1486966 0.307881 0.05258703 0.24063945 -0.07606847 0.42304796 -0.054028817 0.015261865 -0.2919738 0.07260853 -0.12690681 -0.13567084 0.04204196 0.23337157 -0.122317284 0.30634028 -0.14211942 0.32130793 0.11960557 -0.1964696 -0.23274694 -0.24630386 0.151629 0.13018921 0.15518157 0.037097048 -0.207159 -0.11167928 -0.06037373 0.032191124 0.07251121 0.27722976 -0.1771229 0.18954568 -0.014272071 -0.2642665 0.18289429 -0.12909184
like -0.0009854343 -0.17910549 -0.119208746 -0.10239574 0.26025477 -0.08024711 0.3697901 -0.0043122186 -0.09347234 -0.08830961 -0.089070626 -0.045589805 0.09354343 -0.22028185 -0.16372043 -0.039445434 0.15629646 0.028276276 -0.16505785 -0.26265588 -0.12830667 -0.004850472 0.1432402 0.035282563 0.30742967 -0.12534226 -0.09572449 0.19819033 0.034506124 -0.08863165 0.11882369 -0.02381586 -0.5230718 0.02618761 0.19266829 0.106647104 0.037264477 -0.22096553 -0.2582699 0.21059367 0.26437134 -0.07482172 -0.088313505 -0.06738244 0.21589963 -0.2648969 0.25463742 0.14944607 -0.07968907 -0.06082763 0.1079225 -0.06755847 0.079479754 -0.12421017 0.050512116 0.07851775 -0.08648938 -0.097434536 0.023920884 -0.14857712 -0.17450173 -0.098374024 0.1551618 0.30737087 0.06003898 0.23551632 -0.07809226 0.42362824 -0.060096886 0.010633095 -0.29503772 0.07010548 -0.12996717 -0.13658595 0.0396359 0.23289429 -0.1298317 0.31466782 -0.13916698 0.31981906 0.12236731 -0.19422539 -0.23777044 -0.2500693 0.14880802 0.12852983 0.16109195 0.0438745 -0.20534627 -0.11057905 -0.06368354 0.029309928 0.06374006 0.28619206 -0.17683999 0.18595909 -0.018297328 -0.27178767 0.19172278 -0.13509937
see -0.0060768877 -0.15664555 -0.106337965 -0.08052868 0.21621013 -0.065275244 0.30906215 -0.0067152735 -0.083243616 -0.07619206 -0.073825784 -0.042637564 0.08410929 -0.1832367 -0.13018522 -0.0358452 0.13449714 0.028302858 -0.1388192 -0.23170844 -0.10588984 -0.0062595266 0.12387094 0.033654947 0.2622642 -0.10922377 -0.078398034 0.16870044 0.024880208 -0.07877348 0.09989332 -0.023049792 -0.44407377 0.027232887 0.15892816 0.09236237 0.028300298 -0.1881579 -0.22811645 0.17953748 0.22657761 -0.06936601 -0.06793134 -0.05598637 0.18377887 -0.21865138 0.22251649 0.12044188 -0.074842945 -0.047400657 0.08501356 -0.057680912 0.064023785 -0.10199778 0.044183794 0.0676964 -0.07817046 -0.08248192 0.01759117 -0.1202002 -0.14851046 -0.07595772 0.12843964 0.2606393 0.044437226 0.20369792 -0.059453726 0.35820207 -0.04469329 0.006832355 -0.25806862 0.060419112 -0.11319225 -0.11949255 0.027183278 0.20448917 -0.105883524 0.2727221 -0.124118865 0.28359616 0.10328874 -0.16293271 -0.20136394 -0.21828555 0.1306505 0.117182046 0.13716058 0.03259804 -0.17955527 -0.09236852 -0.05129979 0.02956802 0.055634484 0.24613972 -0.14442728 0.15903012 -0.0063439705 -0.23573497 0.16477965 -0.1194632
more 0.00027829976 -0.20950033 -0.14261608 -0.11752522 0.29873976 -0.088280424 0.42318305 -0.001448183 -0.10729342 -0.083184734 -0.103049316 -0.052953884 0.107170016 -0.24789126 -0.18618369 -0.03985558 0.17020611 0.04396697 -0.1893988 -0.29777807 -0.13906734 0.010804986 0.16765362 0.039281707 0.3478757 -0.14112808 -0.113530405 0.22889267 0.04312829 -0.10775096 0.12609519 -0.018115353 -0.5870048 0.030232435 0.21723609 0.1224101 0.049871404 -0.2491001 -0.29501438 0.24338308 0.29534125 -0.09534008 -0.091468625 -0.074525125 0.25117904 -0.30012548 0.29206204 0.1718756 -0.083651245 -0.064217634 0.110830404 -0.08246845 0.08816394 -0.14455712 0.056204706 0.08903181 -0.097994655 -0.124414206 0.028148098 -0.18016605 -0.19169196 -0.109084494 0.18101694 0.3559182 0.062903814 0.27502698 -0.08468174 0.47870526 -0.068579376 0.012193745 -0.33652508 0.076145746 -0.15212624 -0.16010292 0.052309226 0.26010025 -0.14406642 0.35458642 -0.15263805 0.36835498 0.13940889 -0.21159303 -0.2633653 -0.28657135 0.17052767 0.15364031 0.18006948 0.04499197 -0.23242217 -0.1296776 -0.058585253 0.031329866 0.07854635 0.3349431 -0.20234238 0.20868643 -0.011547812 -0.31930372 0.20961106 -0.1412697
will 0.0025073292 -0.17044145 -0.11746344 -0.0929967 0.24463344 -0.07606508 0.35234663 -0.008366546 -0.09024053 -0.07409736 -0.0861843 -0.04517322 0.0852222 -0.20424597 -0.14612548 -0.040327094 0.13913628 0.02329924 -0.16063115 -0.2529052 -0.11282144 -0.0005809886 0.13928767 0.03411543 0.30012515 -0.12605797 -0.08813247 0.18802574 0.029488161 -0.08558144 0.106476076 -0.023779867 -0.4983769 0.024293305 0.18251976 0.107869454 0.03422098 -0.2065179 -0.25174582 0.19583714 0.25245327 -0.06976769 -0.073147826 -0.069633305 0.21279863 -0.25143632 0.24890022 0.13531828 -0.07803501 -0.0562536 0.0992561 -0.062834516 0.069064565 -0.10888096 0.04783906 0.07732852 -0.080074444 -0.09066611 0.028223855 -0.13614564 -0.15801752 -0.09211745 0.14610639 0.30207986 0.052101765 0.236211 -0.06471739 0.4052557 -0.046559304 0.007990834 -0.28502044 0.0597816 -0.13075216 -0.13573143 0.037956182 0.22544216 -0.122999325 0.30427492 -0.12967841 0.31529394 0.12232464 -0.18472166 -0.22012019 -0.240051 0.14373331 0.13020806 0.15327789 0.04367223 -0.19811153 -0.10827493 -0.050938122 0.029129181 0.06350684 0.27239242 -0.16865097 0.17966408 -0.004354526 -0.26311848 0.18210304 -0.13173002
about -0.0064230487 -0.18273792 -0.12521176 -0.105329424 0.27038014 -0.09182325 0.3847903 -0.00043972535 -0.10366945 -0.09682711 -0.0852577 -0.054859318 0.09522563 -0.23074749 -0.1616504 -0.037368033 0.16513453 0.026510565 -0.18351422 -0.28191382 -0.12623675 -0.00607763 0.15903354 0.034323424 0.33968917 -0.13050881 -0.09537337 0.21370254 0.024595078 -0.09199239 0.13115752 -0.037291225 -0.5467095 0.030535469 0.19742434 0.12145961 0.034664758 -0.23457946 -0.27882507 0.22544678 0.27594978 -0.07789754 -0.09175638 -0.06534494 0.22864781 -0.27589527 0.26525298 0.14671695 -0.087029554 -0.060086444 0.119786344 -0.07879005 0.08844821 -0.13123871 0.046664096 0.09133424 -0.091057636 -0.10477687 0.022951595 -0.1514424 -0.18297552 -0.09430529 0.1629089 0.33097434 0.06118724 0.2536164 -0.082346015 0.45490724 -0.0638868 0.022199746 -0.3086464 0.070125274 -0.14170824 -0.14913838 0.03945845 0.25488985 -0.13394596 0.3310528 -0.14487374 0.34973353 0.1286225 -0.20819496 -0.2516908 -0.26902258 0.16085812 0.14217788 0.17176516 0.047719013 -0.21785375 -0.121747546 -0.062471803 0.030470671 0.07373878 0.30331802 -0.19136293 0.19553782 -0.019242413 -0.2880556 0.20264615 -0.14157881
just -0.0005907265 -0.17356625 -0.11311168 -0.096817836 0.2499442 -0.0794834 0.35012132 -0.0040330444 -0.097783715 -0.082625836 -0.083761685 -0.047595445 0.08617463 -0.20584112 -0.14924218 -0.036652274 0.1471906 0.033624545 -0.15852633 -0.24823768 -0.11308861 0.0012017009 0.14094794 0.033962786 0.2985899 -0.12357069 -0.09381785 0.19221134 0.029060384 -0.08301269 0.10705899 -0.02623795 -0.4958621 0.031136457 0.1865866 0.104332075 0.03106801 -0.20371547 -0.24598204 0.1936101 0.2543014 -0.07740343 -0.07617489 -0.060077842 0.21094766 -0.2508455 0.2445636 0.13387188 -0.078557655 -0.05390313 0.10048126 -0.060185935 0.06634282 -0.109436005 0.04343031 0.07717452 -0.08304958 -0.09984303 0.026869142 -0.14142461 -0.16132766 -0.09440512 0.14101315 0.29772398 0.05247032 0.2227505 -0.06596628 0.4022186 -0.05029172 0.011292067 -0.2781402 0.0666469 -0.12946594 -0.12722833 0.034005318 0.22544079 -0.116119 0.29863834 -0.13273348 0.30526966 0.123494044 -0.17994508 -0.22060585 -0.2390721 0.13751176 0.12699965 0.1553595 0.04005581 -0.20033431 -0.10579415 -0.0539897 0.031079631 0.062352113 0.26704502 -0.16555382 0.17998669 -0.013019704 -0.26342285 0.18409757 -0.1299699
how_to 0.007154164 -0.17936762 -0.12660232 -0.10714405 0.25636372 -0.073296405 0.35800993 -0.005441294 -0.09722439 -0.075014986 -0.08401761 -0.038902637 0.09479098 -0.2186433 -0.1597415 -0.03895746 0.14241773 0.029481474 -0.15495439 -0.24894826 -0.12488998 0.013500865 0.14050262 0.02708753 0.28951353 -0.12461775 -0.093877584 0.20018382 0.04384 -0.09586161 0.112957664 -0.010328356 -0.5062179 0.025514236 0.19609326 0.11563408 0.04079819 -0.21269982 -0.2482798 0.2036707 0.25430545 -0.085537404 -0.07425221 -0.06913908 0.22362928 -0.26272553 0.24867022 0.1461071 -0.072272316 -0.045405548 0.0881221 -0.06800416 0.07216242 -0.11758833 0.04170384 0.07783467 -0.08987185 -0.103740245 0.032794 -0.14888336 -0.17012252 -0.09947463 0.15228245 0.31259912 0.06411406 0.23467225 -0.07712792 0.4038481 -0.057673294 0.01439609 -0.29678255 0.05845476 -0.13173825 -0.132871 0.04704222 0.22474734 -0.12376049 0.29887965 -0.1434817 0.31764713 0.12525557 -0.18379644 -0.23109877 -0.25060216 0.15135378 0.13490179 0.15206271 0.05062538 -0.19694267 -0.10484926 -0.051780008 0.03028486 0.06244222 0.28431696 -0.17605852 0.18027772 -0.00088961684 -0.28018543 0.18385069 -0.12172295
do -0.0033580519 -0.17423896 -0.12481587 -0.09214741 0.2619987 -0.08217116 0.3631857 0.0018410224 -0.09593889 -0.08272411 -0.08577898 -0.049600277 0.09078141 -0.22062017 -0.15988421 -0.04212409 0.15487953 0.028896123 -0.1686774 -0.26023656 -0.122392856 -0.002382613 0.14626832 0.03098483 0.31018212 -0.12059131 -0.08853278 0.2029476 0.02803128 -0.09693132 0.114291966 -0.021801371 -0.5137634 0.028198479 0.19338273 0.10886684 0.041519586 -0.21164763 -0.25586116 0.21371087 0.25602657 -0.07641265 -0.081655145 -0.066890754 0.22236693 -0.26208475 0.25226602 0.14727017 -0.07727336 -0.06219053 0.10292769 -0.074437976 0.080205426 -0.12424125 0.043619625 0.08112782 -0.08082072 -0.107534714 0.029991182 -0.14230092 -0.17359444 -0.08970559 0.15711027 0.31236815 0.059701763 0.24185799 -0.071801975 0.42129016 -0.057301745 0.015717182 -0.30055535 0.07045563 -0.13352807 -0.14203668 0.03404519 0.23635688 -0.12731856 0.31157058 -0.13426934 0.3189244 0.12102567 -0.19651566 -0.2336619 -0.25368187 0.15271139 0.12971827 0.15590768 0.040961176 -0.20328574 -0.11545862 -0.06083611 0.03035627 0.06083568 0.2918683 -0.1767018 0.17953855 -0.017224848 -0.26631862 0.18278572 -0.12684606
we -0.006007625 -0.20111567 -0.13404274 -0.10983062 0.2873389 -0.08420983 0.40771475 -0.0011541143 -0.109690584 -0.08433928 -0.099784784 -0.042845443 0.10654959 -0.23637004 -0.1791474 -0.044358358 0.16827916 0.035006102 -0.17514062 -0.2923548 -0.13081346 0.0037009448 0.15717821 0.03441262 0.3361531 -0.14010987 -0.10219694 0.22215816 0.035981562 -0.10413493 0.12956758 -0.027736591 -0.57295334 0.025749221 0.21260071 0.12697415 0.04023417 -0.24231422 -0.27992168 0.2334078 0.29085842 -0.085822396 -0.0860659 -0.07218274 0.23860137 -0.2878702 0.28079587 0.15914246 -0.09031577 -0.061315797 0.114287645 -0.079115935 0.077712275 -0.13742922 0.054850183 0.092872865 -0.096676044 -0.109282285 0.02566883 -0.16025504 -0.18878438 -0.09840174 0.16737089 0.3364283 0.06911576 0.26464066 -0.08622122 0.46508014 -0.065678045 0.017984409 -0.3299986 0.0688196 -0.14273244 -0.15064046 0.041022666 0.24952082 -0.13830005 0.34722647 -0.15150374 0.35674605 0.14297296 -0.20923622 -0.25269395 -0.27659678 0.16393727 0.14596692 0.17414744 0.052570604 -0.21576771 -0.12307203 -0.06382824 0.034333784 0.07592046 0.32222965 -0.1929505 0.20215812 -0.006419088 -0.30503264 0.20663373 -0.14537527
if 0.00059750053 -0.17771828 -0.116829894 -0.09579236 0.25343767 -0.07302606 0.358665 -0.0060440428 -0.09814623 -0.07972947 -0.08798668 -0.044728313 0.094907716 -0.21411061 -0.15294448 -0.03390772 0.14992936 0.025657773 -0.16238599 -0.2667176 -0.11741629 -0.003322997 0.13966623 0.03384571 0.30457687 -0.12661473 -0.09599071 0.19632734 0.031867705 -0.0985962 0.11954509 -0.024442686 -0.5163845 0.031098204 0.186258 0.11249316 0.04235861 -0.21543697 -0.25277507 0.21018027 0.25977647 -0.07745889 -0.08694223 -0.07134899 0.2131065 -0.26395282 0.25284287 0.14628296 -0.08021922 -0.05469662 0.1032576 -0.06758452 0.07666508 -0.12167201 0.04468279 0.07524215 -0.08744779 -0.1034837 0.02991088 -0.14858241 -0.17344956 -0.09954398 0.15415734 0.3150154 0.05283968 0.2382531 -0.07104317 0.4176092 -0.055256628 0.015596637 -0.2984218 0.06742817 -0.13617979 -0.13611425 0.038233493 0.23652819 -0.12119004 0.31327194 -0.14245144 0.320151 0.1302115 -0.19527698 -0.23149809 -0.2478475 0.15107219 0.1370087 0.16276747 0.042854708 -0.20560975 -0.106995314 -0.057207122 0.025476635 0.0698016 0.2801701 -0.16925386 0.17926829 -0.015363034 -0.26930967 0.18456605 -0.12725188
them 0.0015212112 -0.19891165 -0.13551633 -0.111017786 0.29088503 -0.08789299 0.41379175 -0.0039417855 -0.108183056 -0.091057025 -0.10303063 -0.04754767 0.10211439 -0.24749227 -0.17762494 -0.03862306 0.16863081 0.044893485 -0.17990048 -0.29412767 -0.13520949 0.004941008 0.16326557 0.034584966 0.34465128 -0.13761066 -0.10603868 0.22762196 0.03332287 -0.10201402 0.12572812 -0.032595497 -0.57481694 0.028276201 0.2178585 0.124656685 0.04165695 -0.24133106 -0.28861517 0.23494086 0.2967655 -0.09369787 -0.09371242 -0.06708014 0.24433576 -0.29618824 0.28349704 0.16632085 -0.090335034 -0.066438146 0.108607225 -0.07208796 0.08026486 -0.14009714 0.048080467 0.09383989 -0.08967907 -0.11660329 0.03229735 -0.17147218 -0.1867425 -0.11219645 0.17126407 0.34403637 0.061462738 0.2668841 -0.07913864 0.47204575 -0.06649958 0.010621819 -0.33273682 0.075153746 -0.1530595 -0.15366198 0.051076237 0.2649892 -0.13921434 0.3499661 -0.15134986 0.35946533 0.1358241 -0.20978417 -0.2637139 -0.28244337 0.16168368 0.15179725 0.17491701 0.045017757 -0.22872636 -0.11662566 -0.060633786 0.03387128 0.07399268 0.31796312 -0.19912635 0.19808199 -0.009013272 -0.30635893 0.21288444 -0.14856175
said_alice -0.0060933474 -0.18718265 -0.13219772 -0.09904483 0.26856565 -0.07915927 0.38612893 -0.004467576 -0.10447242 -0.09045553 -0.088364884 -0.051393297 0.10194168 -0.22254877 -0.16436887 -0.039377563 0.16414213 0.033644717 -0.1774954 -0.27988327 -0.12858985 0.002039796 0.1484909 0.034945834 0.3265247 -0.13774675 -0.096958384 0.20942657 0.030816352 -0.099912494 0.115259774 -0.026568698 -0.54675674 0.028823406 0.20000196 0.114100255 0.045740016 -0.23061594 -0.27587178 0.21851803 0.27779892 -0.082908705 -0.08955873 -0.063047476 0.23018241 -0.2795969 0.2670119 0.15601963 -0.08395279 -0.063192174 0.11076951 -0.0779469 0.08263198 -0.12820752 0.05303311 0.08179564 -0.08924878 -0.11194541 0.023341335 -0.15125912 -0.17673422 -0.09783863 0.16382839 0.32348806 0.05754935 0.24325553 -0.07863358 0.43999133 -0.06099905 0.012718933 -0.31318635 0.06965099 -0.14368398 -0.14290103 0.037858132 0.24487157 -0.13059074 0.32859966 -0.14348306 0.33985132 0.1273117 -0.20363998 -0.23943408 -0.26184332 0.15452228 0.14642888 0.17134461 0.04655534 -0.21831253 -0.112337455 -0.062104777 0.036002725 0.06502396 0.2979467 -0.17757644 0.18737209 -0.016083602 -0.28990933 0.19464861 -0.13455303
set -0.00051736104 -0.1652969 -0.1165659 -0.09092938 0.24143122 -0.07645181 0.34046695 -0.004917855 -0.09358546 -0.07497959 -0.08525922 -0.041454185 0.09007087 -0.2053437 -0.15285642 -0.041309837 0.13537696 0.027256459 -0.15580517 -0.25230372 -0.114717126 0.0043548816 0.13624905 0.03344235 0.28627136 -0.11751839 -0.09422119 0.19324797 0.03351746 -0.08376805 0.11088352 -0.02131974 -0.49121082 0.03031793 0.18654399 0.104325406 0.036338374 -0.19578771 -0.24211852 0.2001554 0.24515198 -0.07061752 -0.080142416 -0.06521094 0.20740409 -0.24736252 0.24496709 0.14034353 -0.07799549 -0.058303807 0.09719798 -0.06795413 0.070110284 -0.11623082 0.03813454 0.07672136 -0.084280565 -0.094667904 0.025989018 -0.1412108 -0.16362065 -0.08778671 0.13992292 0.29938757 0.04584718 0.23186384 -0.07046211 0.39718112 -0.051478088 0.012603265 -0.2713517 0.05827177 -0.12160429 -0.12905352 0.036022335 0.22316015 -0.112655334 0.2906499 -0.13478623 0.30065587 0.11456108 -0.18252608 -0.21931013 -0.2320293 0.13986264 0.12690715 0.1453036 0.042723607 -0.19433151 -0.1072852 -0.059540775 0.03288421 0.06565189 0.25993514 -0.16895337 0.17869298 -0.0072371904 -0.25722283 0.18035895 -0.13197507
then -0.0046801087 -0.18276206 -0.115523815 -0.09323373 0.25609747 -0.081604585 0.36974305 -0.0005501331 -0.10076697 -0.090023525 -0.0832905 -0.049409024 0.091943264 -0.21585721 -0.1613656 -0.03718858 0.15423198 0.031295486 -0.16652416 -0.27322686 -0.12113354 -0.003064231 0.14772037 0.030726058 0.31439862 -0.13027468 -0.09555425 0.2039082 0.027392382 -0.09039154 0.11950704 -0.029472727 -0.5257805 0.02785892 0.19851564 0.10770467 0.03932307 -0.21926947 -0.26282042 0.21600091 0.2632 -0.072942995 -0.08979688 -0.063841455 0.21275666 -0.2638028 0.260331 0.14723623 -0.08558141 -0.058406223 0.10224309 -0.0720307 0.07221623 -0.12319178 0.0432682 0.08812983 -0.09161958 -0.101739086 0.02181994 -0.1423526 -0.16559742 -0.09647264 0.15738368 0.30744076 0.054007407 0.24282858 -0.07364247 0.42532268 -0.05788802 0.013661378 -0.29431728 0.06619483 -0.13488415 -0.14050925 0.040926468 0.2314609 -0.12749293 0.31263557 -0.14277606 0.32723156 0.11838856 -0.19979317 -0.23405431 -0.25183457 0.15659812 0.13539399 0.16566205 0.046899367 -0.2060274 -0.11013278 -0.06382631 0.025859693 0.063331984 0.28236604 -0.17493369 0.18768916 -0.015722075 -0.27398318 0.1945953 -0.1366313
very 0.00025403744 -0.15759107 -0.10300059 -0.077040516 0.23440123 -0.07293472 0.3320625 -0.0040136287 -0.09560567 -0.08771121 -0.06955939 -0.042201146 0.0846544 -0.19756246 -0.13925092 -0.03695414 0.14208546 0.023274662 -0.15285942 -0.2549828 -0.109424524 -0.014879847 0.130427 0.030377582 0.2983001 -0.11040992 -0.08109564 0.1900138 0.02441006 -0.07321085 0.106064804 -0.038658436 -0.4737796 0.033382695 0.16813217 0.09662207 0.032956503 -0.20791823 -0.23904295 0.19463967 0.2404411 -0.06724467 -0.0792553 -0.062459085 0.19177282 -0.23709516 0.23295037 0.13177799 -0.08246602 -0.05553903 0.11320161 -0.06334089 0.078561224 -0.11439788 0.04470091 0.08303071 -0.07745858 -0.08393122 0.023845555 -0.12798682 -0.15718487 -0.08214988 0.1333302 0.28412944 0.050280903 0.21715297 -0.0742823 0.39197814 -0.044038355 0.013586694 -0.27496478 0.068453126 -0.12625712 -0.12061002 0.038042713 0.21559224 -0.11503976 0.28038454 -0.12534852 0.30630484 0.11053634 -0.18480797 -0.21824504 -0.22353423 0.13446008 0.12062836 0.1521061 0.03368851 -0.1989091 -0.101881556 -0.064518265 0.028289247 0.06635575 0.26079836 -0.15914367 0.17885096 -0.018856904 -0.24404846 0.18007311 -0.12720619
if_you 0.0039305477 -0.20265925 -0.13646744 -0.12297712 0.30158025 -0.08344183 0.42245638 -0.010950547 -0.11106535 -0.08881115 -0.102986164 -0.050848268 0.10240562 -0.24924609 -0.18707405 -0.041899018 0.17793588 0.033454575 -0.18410496 -0.297655 -0.13819638 0.0052939616 0.16407306 0.043285053 0.34768197 -0.14617954 -0.10674817 0.22898936 0.04289825 -0.11200621 0.13485777 -0.02686651 -0.58610106 0.027627394 0.22562215 0.13219354 0.045378994 -0.24891214 -0.29213142 0.24310037 0.30453035 -0.0915475 -0.09071611 -0.07847267 0.2503504 -0.30494055 0.29464272 0.16840965 -0.0897308 -0.06659746 0.113744505 -0.07192986 0.08017555 -0.1445465 0.050234903 0.08949198 -0.094065264 -0.115428984 0.033387735 -0.176434 -0.19812271 -0.11429191 0.17490353 0.35993525 0.062630974 0.26941833 -0.08233846 0.48144498 -0.063531704 0.0135352025 -0.34086695 0.07079937 -0.14949764 -0.1549794 0.042490408 0.26290166 -0.1416146 0.34986982 -0.15872279 0.3611409 0.14538471 -0.21424668 -0.26795357 -0.285679 0.17018275 0.15096278 0.1834439 0.05470768 -0.22600013 -0.13095035 -0.067735665 0.034607634 0.07868365 0.3294382 -0.20094886 0.21033129 -0.009143214 -0.32008338 0.20940931 -0.14731881
now -0.0034214498 -0.17510717 -0.11103309 -0.089450404 0.24517205 -0.07812212 0.35520193 0.00010031286 -0.08965565 -0.08008881 -0.08209429 -0.045111697 0.08492706 -0.20342599 -0.15334518 -0.03966005 0.15103787 0.03304868 -0.15487601 -0.25142595 -0.12015537 0.0021784718 0.1417871 0.034503743 0.29221532 -0.12326573 -0.09431613 0.1899413 0.03374312 -0.09189251 0.10889644 -0.025047062 -0.4942541 0.032978296 0.18179938 0.10250371 0.032436796 -0.21146259 -0.24972916 0.20183532 0.25288975 -0.07853193 -0.08057395 -0.06123858 0.20979932 -0.24794783 0.24060287 0.1345459 -0.07688805 -0.060452882 0.09912727 -0.0688555 0.07273408 -0.119038515 0.04631471 0.08378024 -0.08157036 -0.099394605 0.022880796 -0.13672891 -0.1638661 -0.08398599 0.15000397 0.29658225 0.056527965 0.23353983 -0.07258727 0.40423846 -0.0601155 0.019535413 -0.28519946 0.06021134 -0.12783642 -0.12711217 0.039030433 0.2286978 -0.121830314 0.30178866 -0.12767237 0.30846813 0.117134444 -0.18956089 -0.22198144 -0.23629305 0.14250027 0.12885149 0.1497786 0.036748074 -0.20164183 -0.11059348 -0.062411856 0.026627671 0.06679406 0.27848876 -0.17196201 0.180199 -0.017250348 -0.2562774 0.17812486 -0.12920175
no -0.0029706862 -0.17632543 -0.120659195 -0.10140978 0.26537684 -0.08431591 0.37436467 -0.005065469 -0.094460085 -0.07654295 -0.091839686 -0.047704194 0.09187446 -0.2218724 -0.15675227 -0.035204668 0.15022416 0.03572947 -0.16971296 -0.26475155 -0.12747453 0.008789692 0.14338574 0.032429367 0.3070511 -0.12900716 -0.10201394 0.19999261 0.033622477 -0.10131164 0.11444997 -0.021829452 -0.52453333 0.026895897 0.19204648 0.11057893 0.036165476 -0.22173221 -0.26054612 0.2113903 0.26034212 -0.085454814 -0.08077503 -0.06622181 0.22549638 -0.27162066 0.26285508 0.14484075 -0.082270674 -0.0625484 0.10623182 -0.069585435 0.07581344 -0.12321649 0.048094615 0.081017114 -0.08785769 -0.11075908 0.023203608 -0.14728373 -0.16844608 -0.096316405 0.1557273 0.30923158 0.06362766 0.24431589 -0.07848374 0.4242989 -0.05749606 0.010449847 -0.3022027 0.05916002 -0.13240583 -0.14409594 0.045023836 0.24168116 -0.12220955 0.3197956 -0.13646916 0.32303822 0.1334392 -0.19759972 -0.23960564 -0.24819921 0.15302636 0.14187947 0.1637105 0.039158154 -0.20170549 -0.11082416 -0.062006705 0.034161214 0.064002044 0.28967112 -0.17410912 0.182757 -0.016540706 -0.2745078 0.18918285 -0.1361965
first -0.0014039895 -0.16185555 -0.1049841 -0.07923495 0.22519518 -0.07408377 0.32961327 -0.0005780778 -0.08777506 -0.08014172 -0.07143256 -0.04126197 0.07842242 -0.19342555 -0.14052194 -0.033906743 0.13101865 0.02649239 -0.15290168 -0.23974565 -0.10553783 -0.0067144935 0.13007885 0.02719658 0.27960616 -0.108448565 -0.08898338 0.18218863 0.025970088 -0.078206345 0.10126374 -0.02718858 -0.4586949 0.023825327 0.16653505 0.09832621 0.037326917 -0.19476132 -0.23387529 0.18445565 0.23187281 -0.06667314 -0.06881684 -0.061339445 0.18623646 -0.22625597 0.22213595 0.12784465 -0.080114245 -0.048953924 0.09898893 -0.06528598 0.06830353 -0.10154598 0.04482079 0.070510834 -0.077893965 -0.093043275 0.018222397 -0.12400499 -0.14858295 -0.08130168 0.13236558 0.27777925 0.053437114 0.2140932 -0.06726872 0.37528387 -0.046678763 0.009916695 -0.2608906 0.055883445 -0.113412336 -0.12054415 0.038596626 0.20460711 -0.11246726 0.27151772 -0.12560663 0.28637654 0.11473746 -0.17073266 -0.21075581 -0.22316897 0.13125515 0.11652477 0.13973057 0.040781323 -0.18721293 -0.10044719 -0.056045298 0.020268217 0.06086435 0.25819436 -0.15031524 0.16801885 -0.013081465 -0.24818695 0.17349645 -0.11789821
element 0.004571138 -0.16374573 -0.104026176 -0.081449755 0.23567748 -0.079259016 0.3315247 -0.010653885 -0.08608941 -0.07265548 -0.07271859 -0.031922314 0.08652392 -0.19595501 -0.13635968 -0.036065675 0.13090098 0.020009218 -0.15612563 -0.2384705 -0.106493585 -0.005702506 0.12701064 0.033260725 0.28055486 -0.1210529 -0.0871531 0.18485579 0.03421723 -0.09206616 0.107471384 -0.015848499 -0.47709167 0.034318622 0.17565437 0.10386019 0.0376953 -0.19000156 -0.23703451 0.18611977 0.24447985 -0.07222638 -0.07753232 -0.058324467 0.20504744 -0.23848912 0.23836961 0.13599522 -0.07496859 -0.05466969 0.093936056 -0.060665447 0.066802375 -0.103567936 0.04706112 0.071754344 -0.085465975 -0.089749105 0.029065872 -0.13595234 -0.15495358 -0.09329713 0.14490317 0.29372618 0.0470682 0.22586831 -0.06428496 0.3791219 -0.040932298 0.008145655 -0.26709992 0.053487476 -0.1269479 -0.13188908 0.040052943 0.21757074 -0.11637728 0.2849196 -0.12905154 0.30253518 0.11201612 -0.17567839 -0.21668175 -0.23302902 0.14160852 0.12575415 0.15115692 0.04032136 -0.18759598 -0.09566774 -0.059532437 0.029289579 0.05917727 0.2543098 -0.16841109 0.17859405 -0.0035970493 -0.2589963 0.17784385 -0.12658991
https_www 0.06869533 -0.3530702 -0.3059101 -0.34725288 0.458774 -0.02876933 0.5006459 -0.07801173 -0.13783042 0.05133015 -0.28537306 -0.053279486 0.1313366 -0.36831912 -0.31693015 0.015942473 0.27921206 0.13767801 -0.116110496 -0.33163235 -0.25283635 0.19952032 0.23105335 0.027530128 0.16313924 -0.1868731 -0.24462374 0.24027547 0.21655272 -0.27110952 0.058057144 0.22442938 -0.7725199 -0.11943445 0.32626912 0.17723599 0.23474436 -0.25018778 -0.38245133 0.27725264 0.3647208 -0.21586259 0.013101662 -0.050505977 0.44070405 -0.49981508 0.39337668 0.28372645 0.08720582 -0.030749097 -0.07599482 0.009484954 0.02911824 -0.19534765 0.0621642 0.012562565 -0.124223724 -0.35012206 0.124170005 -0.43326497 -0.16672465 -0.1617992 0.28456354 0.40132862 0.18444535 0.2808697 -0.10341339 0.50292474 -0.2055336 -0.050051887 -0.52833295 0.022194766 -0.16284262 -0.24310891 0.15104766 0.29450905 -0.11120828 0.42619106 -0.17954521 0.3386562 0.32567534 -0.09332796 -0.38958722 -0.35922116 0.1935797 0.35246003 0.18577228 0.08478159 -0.14106908 -0.09158393 0.12056229 0.054323167 0.078894995 0.56434983 -0.2267152 0.093141966 0.067042276 -0.5102155 0.1979507 -0.08722814
can 0.0027609514 -0.17261848 -0.11946482 -0.1026707 0.24799229 -0.070715256 0.36416444 -0.009049562 -0.09622187 -0.075464815 -0.08950896 -0.040824153 0.08840856 -0.21050172 -0.15825614 -0.033263788 0.14848948 0.030924806 -0.15707146 -0.26074412 -0.12444923 -0.0011443441 0.1451255 0.034007665 0.30292088 -0.13019824 -0.099677496 0.19433221 0.03900568 -0.09840701 0.108459026 -0.027833916 -0.5058714 0.028509013 0.18687597 0.10952752 0.035310104 -0.21411775 -0.2515858 0.19901298 0.2578795 -0.07665338 -0.074363224 -0.070603676 0.21131234 -0.2541795 0.2484052 0.14550667 -0.08280161 -0.056701105 0.10175352 -0.06819585 0.071163766 -0.12035762 0.040123265 0.074725844 -0.087013446 -0.10574007 0.025241245 -0.14297846 -0.16857065 -0.099020846 0.15094316 0.3044997 0.063242294 0.23661372 -0.078377664 0.414668 -0.054398336 0.015665399 -0.2966052 0.06821204 -0.12486188 -0.13257368 0.044784687 0.22923304 -0.12600726 0.3040465 -0.13400455 0.308719 0.12199073 -0.18564951 -0.22322969 -0.24217203 0.14731061 0.13789558 0.15526335 0.041082755 -0.20073989 -0.100917324 -0.05200584 0.02913832 0.06341352 0.27958435 -0.17126614 0.17505299 -0.01406441 -0.26976657 0.18361141 -0.1262801
had -0.0008669654 -0.17242819 -0.108772874 -0.09498492 0.24564084 -0.07895615 0.34745505 -0.0023354448 -0.09009707 -0.07520358 -0.08088406 -0.039717764 0.08382506 -0.1983861 -0.1484383 -0.03128254 0.15068975 0.033818733 -0.15776832 -0.2550941 -0.114346415 -0.0062710093 0.13067196 0.031891674 0.29252195 -0.11760439 -0.08804507 0.18329465 0.028462159 -0.08428758 0.10307384 -0.023341259 -0.48664048 0.023811158 0.17430426 0.103265464 0.03962774 -0.20320235 -0.24701472 0.19337304 0.24957101 -0.07650888 -0.08211305 -0.062468823 0.20071757 -0.24949153 0.23403816 0.13870566 -0.083748944 -0.049117755 0.10273518 -0.06060777 0.07078654 -0.11865268 0.04403739 0.08291198 -0.07744953 -0.09525864 0.020136096 -0.14302026 -0.16049425 -0.08937843 0.14354047 0.2898957 0.049781535 0.22537135 -0.07477665 0.3969821 -0.05211501 0.018924663 -0.2757093 0.06588755 -0.12318651 -0.1327475 0.038498867 0.22474627 -0.11852162 0.2893961 -0.1343982 0.3031337 0.120969005 -0.18715984 -0.21698757 -0.23226078 0.14483936 0.12328246 0.1564602 0.035077862 -0.19085501 -0.10598127 -0.062350728 0.027843203 0.064011335 0.27677217 -0.16243324 0.1750066 -0.012262247 -0.25520045 0.17380838 -0.12416167
get -0.0024418968 -0.15317023 -0.10071525 -0.078423455 0.21524128 -0.06417873 0.30853102 0.0011957572 -0.0841361 -0.07883233 -0.0668717 -0.033952326 0.082309246 -0.18301682 -0.13691507 -0.029407859 0.12443635 0.023083527 -0.13877097 -0.22499256 -0.09702662 0.0017338719 0.11758456 0.027870446 0.2676748 -0.102319784 -0.07482032 0.16823705 0.027782094 -0.07916143 0.09690861 -0.027292209 -0.44057107 0.029092208 0.15709062 0.09227089 0.027207978 -0.18808003 -0.21567905 0.18115251 0.22320403 -0.06289895 -0.06787233 -0.05996674 0.17926572 -0.22131188 0.22031471 0.117822796 -0.07386056 -0.04885972 0.08665266 -0.066910736 0.07014529 -0.10323053 0.04558032 0.06827706 -0.069055505 -0.08286173 0.02239335 -0.114873074 -0.13971236 -0.07707413 0.12824123 0.2678939 0.041208822 0.20019221 -0.059761167 0.3620249 -0.043884326 0.017280826 -0.25351614 0.06376239 -0.11685787 -0.114043415 0.03201381 0.2006228 -0.10452132 0.2678212 -0.11246299 0.2779934 0.10646837 -0.16592775 -0.19464058 -0.21672587 0.12643069 0.109814696 0.14108108 0.031109184 -0.1717809 -0.09162795 -0.061779633 0.022158982 0.05408335 0.24201632 -0.15310313 0.16877496 -0.010097923 -0.22847988 0.16850595 -0.119554475
who -0.005779195 -0.19308259 -0.12933882 -0.10279223 0.2720085 -0.08679688 0.38673097 -0.004106898 -0.10818373 -0.08840689 -0.08801621 -0.04486594 0.09702332 -0.22517046 -0.17298114 -0.03855508 0.16514872 0.03195566 -0.16696838 -0.28394607 -0.12823047 0.0023337211 0.15741807 0.03947693 0.32403985 -0.13215548 -0.09547474 0.20553377 0.033395253 -0.10418805 0.11715124 -0.025506642 -0.5485655 0.029492589 0.20846246 0.115642995 0.046164382 -0.22801632 -0.27283084 0.2209427 0.27816495 -0.08594739 -0.08413013 -0.06997522 0.22677977 -0.2810123 0.27293983 0.14971992 -0.07929611 -0.054418784 0.10988685 -0.074736625 0.07794118 -0.12690175 0.05135413 0.08829538 -0.086879626 -0.11324886 0.03280566 -0.15869674 -0.17716634 -0.1021557 0.1625607 0.32328203 0.05825509 0.2483605 -0.08177977 0.44139948 -0.06384707 0.015861472 -0.3181836 0.071670696 -0.13539904 -0.14599235 0.042617206 0.2417868 -0.13405061 0.32327986 -0.14915237 0.33976 0.12921555 -0.20682287 -0.2400819 -0.26152003 0.15660152 0.14406689 0.17012797 0.050177597 -0.21338761 -0.117490254 -0.06107331 0.03465969 0.07462199 0.30555248 -0.18740433 0.19583976 -0.008524933 -0.28505614 0.19290407 -0.14150299
herself -0.0021689115 -0.14782669 -0.10623168 -0.07785786 0.21516095 -0.06800394 0.3074856 0.0014083086 -0.09093278 -0.07927203 -0.07264264 -0.03757346 0.069566704 -0.18344252 -0.13318986 -0.027199747 0.13290192 0.02659967 -0.14003704 -0.23174404 -0.09426311 -0.004806071 0.12702054 0.025182473 0.27264813 -0.10976266 -0.07181385 0.17530017 0.015876317 -0.07869112 0.09757788 -0.031731013 -0.4314176 0.03201498 0.16043343 0.08605371 0.029220754 -0.18815276 -0.22073981 0.17757577 0.21848987 -0.06378819 -0.07749601 -0.05715258 0.18200728 -0.21408656 0.21049942 0.12206354 -0.07716508 -0.05247292 0.10065093 -0.057793014 0.061867606 -0.10441741 0.040396415 0.07954122 -0.06980565 -0.08231786 0.014486787 -0.1148701 -0.14463218 -0.082193956 0.122583754 0.26030657 0.043393526 0.20109415 -0.06027046 0.36553174 -0.047418848 0.02055054 -0.24346782 0.062632225 -0.11232013 -0.118975535 0.026908021 0.20436187 -0.10862423 0.26245904 -0.113060184 0.27677408 0.104549125 -0.17276984 -0.19952838 -0.21064927 0.12980776 0.10803355 0.1411162 0.04000686 -0.17741431 -0.09179304 -0.054218665 0.017294828 0.054767266 0.23467478 -0.14521101 0.15917599 -0.013833347 -0.22618972 0.15633698 -0.11144595
some -0.0031370826 -0.16076933 -0.11192886 -0.09426025 0.22902681 -0.06744075 0.326944 -0.0038805883 -0.08920924 -0.06744013 -0.08397543 -0.041009955 0.08326886 -0.19365197 -0.14141166 -0.030401988 0.13941447 0.031701155 -0.1494045 -0.23383464 -0.108033985 0.0007387855 0.13663198 0.02852777 0.26900637 -0.11555544 -0.08912494 0.17830472 0.026450407 -0.08094998 0.096855015 -0.019203734 -0.47233742 0.026805012 0.17240724 0.09414486 0.03726697 -0.19014491 -0.2305453 0.19353881 0.23140146 -0.0781267 -0.07405059 -0.055684328 0.19987617 -0.23813285 0.2248813 0.13337924 -0.06530752 -0.0454807 0.08939508 -0.058137756 0.06600657 -0.106791385 0.036708437 0.0789217 -0.077158146 -0.0952579 0.026338946 -0.1338909 -0.14961773 -0.090622954 0.14131238 0.27636927 0.052616708 0.20961429 -0.06542031 0.37377805 -0.05736611 0.010954946 -0.26955935 0.053178515 -0.12094402 -0.130691 0.031742398 0.21565577 -0.115577936 0.28069648 -0.12549523 0.28599125 0.116859704 -0.16881178 -0.21531308 -0.21993758 0.1363908 0.12011956 0.13753955 0.042635903 -0.18038079 -0.10060897 -0.050793204 0.026432464 0.05735852 0.25759107 -0.15798873 0.16516528 -0.01196351 -0.24996711 0.17308563 -0.11600027
your_list 0.0007051999 -0.17974491 -0.12893017 -0.09440635 0.25649142 -0.07955941 0.3709639 -0.00990268 -0.10252994 -0.08104809 -0.09260788 -0.04653931 0.09967502 -0.22029497 -0.16220681 -0.04090299 0.15183653 0.033592854 -0.16562867 -0.25898677 -0.12569067 0.0033253867 0.14898582 0.036340237 0.30904758 -0.12801942 -0.10232927 0.20489623 0.038052157 -0.09625462 0.11295529 -0.022604654 -0.51571226 0.028778778 0.19103381 0.113980584 0.039137002 -0.21065442 -0.26255476 0.21389197 0.2698623 -0.07567691 -0.07704998 -0.06506652 0.22445966 -0.26053053 0.25846273 0.1497435 -0.08083239 -0.057387967 0.10067637 -0.07024 0.076667435 -0.115394644 0.04838131 0.08599507 -0.0917002 -0.105226375 0.029406456 -0.15242147 -0.17178021 -0.09650657 0.16009498 0.32083228 0.057321094 0.24555597 -0.073661074 0.41868392 -0.057196874 0.005498154 -0.29974005 0.06431914 -0.13381574 -0.13406721 0.035410445 0.2407178 -0.12737378 0.3200151 -0.1463895 0.32599425 0.12810028 -0.19669874 -0.236563 -0.25063413 0.15675908 0.13355972 0.16241439 0.049124204 -0.20865218 -0.118151665 -0.055549186 0.03133249 0.06987405 0.28811756 -0.17646752 0.18941383 -0.007057491 -0.27977297 0.19154872 -0.13844328
there 0.0023965547 -0.17843498 -0.13045132 -0.105611674 0.2661588 -0.08155718 0.373301 0.0005626628 -0.10306766 -0.07967695 -0.09545515 -0.04377394 0.09539584 -0.2266161 -0.1632844 -0.041368097 0.15107659 0.040120095 -0.15881245 -0.26415122 -0.13169208 0.0100650815 0.14503983 0.029673891 0.29976213 -0.12369805 -0.093720324 0.19897673 0.03588442 -0.09303861 0.11871164 -0.02209035 -0.52579075 0.026711259 0.19005516 0.11188112 0.042289425 -0.21570088 -0.25535688 0.21072525 0.269458 -0.07948338 -0.08436531 -0.060711984 0.22767238 -0.26327696 0.25726548 0.14872745 -0.080245264 -0.05764082 0.09916644 -0.07171272 0.06908393 -0.12047353 0.04780199 0.07916444 -0.08669877 -0.111121014 0.03148459 -0.15893865 -0.16946809 -0.09151821 0.1564154 0.30815372 0.05956395 0.23948951 -0.0753099 0.42165846 -0.06653216 0.011628345 -0.30565417 0.06798622 -0.1330099 -0.14332 0.039245863 0.23406178 -0.12819283 0.31255785 -0.14568746 0.32524544 0.12544742 -0.19405937 -0.24002829 -0.24846749 0.15434004 0.14432241 0.15823066 0.042584065 -0.19973236 -0.112582184 -0.061632592 0.03431369 0.062109724 0.29581916 -0.17088246 0.1830991 -0.006752005 -0.27914304 0.19079338 -0.13392489
function 0.00047420387 -0.14548466 -0.10574824 -0.079991944 0.20792714 -0.06845798 0.29400563 -0.011315901 -0.082188435 -0.06346672 -0.073199004 -0.031552255 0.07015508 -0.18143556 -0.1287796 -0.03699807 0.12529016 0.021893125 -0.13618957 -0.21522462 -0.09944309 0.0009430593 0.123197384 0.029906377 0.25294724 -0.096315525 -0.0819242 0.1710908 0.029788151 -0.07866946 0.0869627 -0.010917161 -0.41806895 0.023014322 0.15941346 0.09776809 0.032309625 -0.17693552 -0.21821724 0.16404219 0.21182951 -0.063511975 -0.07043963 -0.05538552 0.18251336 -0.21683308 0.20716278 0.11865206 -0.06833378 -0.044341512 0.07673365 -0.051460467 0.061276175 -0.098665446 0.0429596 0.07000448 -0.07787628 -0.082481414 0.02457092 -0.11710135 -0.1388979 -0.0786688 0.12317106 0.25571164 0.04524061 0.19474387 -0.05792118 0.34092042 -0.03998259 0.013623129 -0.24452522 0.050682552 -0.109463565 -0.10954777 0.033501584 0.18699408 -0.10399905 0.2543108 -0.11710103 0.26972958 0.10210032 -0.1506187 -0.18635918 -0.20892164 0.12566683 0.1108695 0.13390307 0.032178693 -0.16463754 -0.09548431 -0.046342026 0.020126693 0.0540444 0.236308 -0.14116962 0.15602478 -0.0026411938 -0.2273561 0.16072674 -0.108217746
python_list 0.087488554 -0.4300482 -0.40138236 -0.4457173 0.56563 -0.053969473 0.5975318 -0.1120929 -0.15162644 0.10398723 -0.35633677 -0.050609343 0.18776838 -0.45515588 -0.3556177 0.022927452 0.3244486 0.18347989 -0.12356361 -0.37753537 -0.33407795 0.22944161 0.29094434 0.041116845 0.16528359 -0.20256202 -0.29727516 0.3076918 0.2766399 -0.32772827 0.02102054 0.31016865 -0.92325187 -0.14813043 0.38545364 0.23623301 0.27344096 -0.27759936 -0.47350463 0.319114 0.4439778 -0.2773923 -0.007501017 -0.09022728 0.5557913 -0.6058101 0.4730268 0.3688401 0.12167613 -0.008792281 -0.1484447 0.026634403 0.0072290073 -0.24373563 0.06404173 0.003995435 -0.1322403 -0.4352911 0.13218963 -0.5330111 -0.22438186 -0.21110828 0.35646364 0.5192019 0.2123778 0.341964 -0.16070713 0.5852445 -0.2659909 -0.11058628 -0.64469355 -0.009155393 -0.2036942 -0.29780358 0.16644081 0.3721491 -0.14991261 0.51693815 -0.22941418 0.40904233 0.3811909 -0.09467181 -0.51137656 -0.41292137 0.2287297 0.43852022 0.2314462 0.058340263 -0.1990474 -0.14100611 0.1489741 0.07643313 0.077469125 0.6897502 -0.25601435 0.12794186 0.082055666 -0.63912046 0.25870532 -0.08462702
datacamp_com 0.08092958 -0.4197733 -0.37871644 -0.41214475 0.56381077 -0.027114648 0.5834185 -0.11064368 -0.17016871 0.073988914 -0.3427962 -0.06649785 0.16702598 -0.4380119 -0.37275586 0.02851158 0.32597116 0.1631024 -0.121120304 -0.3918566 -0.31720307 0.22400899 0.28772724 0.044315405 0.19121821 -0.2077206 -0.28592598 0.28609276 0.2643118 -0.3014479 0.06317369 0.27633187 -0.9298894 -0.1462228 0.37813193 0.22048914 0.28064576 -0.29096428 -0.47803125 0.34376287 0.43563727 -0.24058206 0.005513492 -0.06485795 0.5262566 -0.58763 0.47218195 0.32798553 0.12624711 -0.019300018 -0.11160235 0.01113507 0.024396995 -0.2352881 0.067007415 -0.006280256 -0.13166681 -0.4200881 0.14239685 -0.5158061 -0.21318959 -0.20228437 0.35150942 0.50325966 0.22275993 0.32943586 -0.13236158 0.58571815 -0.26629868 -0.07725504 -0.6350723 -0.005961833 -0.18249212 -0.3036624 0.17593198 0.36308923 -0.13127376 0.5096305 -0.22949855 0.40228686 0.38377628 -0.09478806 -0.49043217 -0.4245362 0.21861267 0.4239482 0.20628798 0.07755021 -0.17324702 -0.10836716 0.13396266 0.06111068 0.077185154 0.68009543 -0.27323005 0.11250502 0.07254348 -0.63324976 0.24842411 -0.10583036
way -0.0035887053 -0.13918948 -0.09576409 -0.07246234 0.2079151 -0.06500574 0.2921321 -0.00049572805 -0.08141902 -0.069051325 -0.06324319 -0.036537986 0.07036835 -0.17378463 -0.12349059 -0.028189091 0.11646427 0.030023938 -0.12679002 -0.21384542 -0.091152616 0.0011314899 0.11726475 0.025172466 0.246562 -0.09262824 -0.07498032 0.16153482 0.023858288 -0.072264664 0.09274535 -0.024331989 -0.40988302 0.024426714 0.14866793 0.08338137 0.0316585 -0.17534953 -0.19978297 0.15962905 0.20624357 -0.06654333 -0.06512405 -0.05247257 0.17350641 -0.20488213 0.19750282 0.112143606 -0.068847016 -0.04133457 0.08146876 -0.050770085 0.06385105 -0.09417389 0.041448426 0.06906292 -0.072658695 -0.07828928 0.021590834 -0.10884916 -0.1262047 -0.06822054 0.120019354 0.24584836 0.048869852 0.18426713 -0.06096889 0.33887196 -0.048393924 0.013063951 -0.22696313 0.048669603 -0.099822104 -0.10828239 0.028370693 0.18936267 -0.096560314 0.24915017 -0.11385066 0.25351495 0.09587428 -0.15283634 -0.17890827 -0.20179519 0.119403146 0.10052595 0.12559184 0.028125696 -0.16034855 -0.08237235 -0.048631582 0.024318634 0.049013678 0.22590427 -0.13839933 0.14671066 -0.0122739 -0.21759856 0.15192392 -0.102042675
only 0.0009861563 -0.18245663 -0.12725219 -0.10165647 0.26666433 -0.08975314 0.38555235 -0.0028499793 -0.10162771 -0.09038538 -0.08753698 -0.040571753 0.09405715 -0.22264956 -0.16890554 -0.036625665 0.16322537 0.03111616 -0.17245603 -0.2778227 -0.12792389 0.00068496383 0.15538055 0.03882802 0.31776446 -0.1347764 -0.09642082 0.20981026 0.032307234 -0.09875554 0.11943137 -0.029714676 -0.5459677 0.03080846 0.20581825 0.12129643 0.0414403 -0.22609401 -0.27446687 0.2160004 0.27095953 -0.087977685 -0.08839633 -0.0705984 0.23410037 -0.27854645 0.2644655 0.14969543 -0.08927691 -0.054617845 0.1129062 -0.07505246 0.08296408 -0.12501945 0.05245619 0.08465279 -0.087379396 -0.10442206 0.026417337 -0.15475939 -0.18351054 -0.10013485 0.16037306 0.32613635 0.056468703 0.24980791 -0.08030615 0.44123852 -0.05778466 0.012613332 -0.31457803 0.073805645 -0.13903478 -0.1442622 0.04717526 0.24153161 -0.1338583 0.32388285 -0.14779179 0.33549485 0.13039896 -0.20473878 -0.24784075 -0.26711562 0.15808873 0.14236015 0.16191122 0.041565992 -0.21493028 -0.11963556 -0.06371145 0.033039737 0.074183725 0.30371946 -0.18270162 0.1994532 -0.016730243 -0.2849845 0.20021945 -0.1351401
